0.40583608930462645,0.7975266578927516,-0.9045755119880219,-0.471736643441361,-0.8455934178822551,-0.18803558789212937,0.16100949491625127,0.20953556801381867,-0.07643516230546932,-0.9419715646002071,-0.9465989914614474,-0.1970545782158173,-0.15047040330890174,-0.5551683035274759,0.36101548790139587,0.638393436747838,-0.366419976253727,0.41987043675673075,-0.3342363105863373,-0.12140147449965166,-0.004759106167906202,-0.9566434727881508,0.14728089718330795,0.30163086841298403,-0.5385309178799034,-0.4155921418276556,-0.3280173451723809,0.875732201733695,0.674083172512052,0.1764293272583095,-0.6753122919244356,0.47614163222335537,0.08704816088590778,-0.5402572378835984,0.5570741451472138,0.2637575763561139,-0.8221309539716416,0.5840591187762343,0.914553028202737,-0.48388762442758154,0.1257103866429868,0.5546517864002662,-0.2850456329304516,-0.14847410665645805,-0.8583936532625498,-0.8534305670819864,0.5956486535983841,0.537718522258617,-0.849485310558103,0.973255314275035,-0.7590861256929755,-0.68193297095904,-0.26533650250254404,0.002249766098262773,0.225085266740076,-0.49539454702249386,-0.8495496850471358,-0.4551981269201302,-0.09454456106440447,-0.06628761595222782,0.13174605196168884,0.8961068429576375,-0.4835342653050196,0.37591050905224066,0.38639692263496583,-1.1098191735508176,-0.32855592388694416,-0.5364657843954314,0.2799013759910605,0.46039056630128466,-0.7695563652747024,-1.3141589827168083,-0.5635332123943595,-1.1828378095862586,0.16584015055730908,-0.9111247585215453,-1.0754255524374894,0.18579357741503127,0.41534179919596736,-0.5632932246609962,-0.9034261838387428,0.6979348500952348,-0.23828149375587238,0.9470150808257274,-0.02427835432338088,0.1682220001302026,-0.3757649120173413,0.8209455714954373,-0.49821815658872226,0.5767006064404235,-1.1529403182394227,-0.1758877004543915,0.5355209197282872,-0.253527312752811,-1.2302447604410318,0.0034317926126657874,-1.0609852262642907,-0.038923674024355946,-0.5092299483387102,-0.31480505621163274,-0.785279997453823,-0.8062102455487197,-1.3597471549913633,-0.2383328158044643,0.8636579733492685,-0.14451094472165166,-0.7887590622515445,-0.408657096622341,-0.1269418405707821,-0.5214428098195736,0.6918120679713486,-0.23879299510052188,-0.8507995977052782,0.5271731724823426,0.47216473937536213,-0.14224662306888083,-0.7231672008612887,0.4058762589188525,-1.1356035626204841,-0.5470811602862546,-0.8269451059066849,0.14581602896456508,-1.1961252627663015,-0.4507823867086498,-1.0060440278621035,0.7422811079149588,-0.6244197226554248,-0.13426898223010758,-0.8663774578828816,-0.21077235561159818,-0.9798622761996111,0.7577629920435024,-0.8426491533765391,-0.3185624615000898,0.6143401119025,0.5559826160638365,-0.27207026953321345,-1.0434644999949982,0.2929800500072009,0.1810478177553568,0.6875917900240158,-0.6346663936037187,-0.04310359809406181,-0.5953037850295204,-0.5393209661787716,0.2542876397652171,-0.11671913535610116,0.36148394055532,-0.49227969341886585,-0.8954215405028437,-0.45974002407536996,-0.6120263919864506,0.017295299159385217,0.9033803328784548,0.12432327207432543,0.3517276204970495,-0.0828379489815894,2.1308646827645013,0.10451643390015447,0.20146288843237914,-1.7027661045897462,-1.0189532604620979,-0.015064743790376024,0.10262650355651497,-0.5099780935649713,-0.33960167592494345,0.3083296177808821,-0.6795764786132222,-0.7341784138921723,-0.9040253220022395,-0.19219313354306788,0.36725775670470706,0.380993830489164,-0.6376602926095531,0.26024618471904226,-0.9212332421929097,-1.3706072152363533,-0.870675823783493,-0.8435082063327511,0.10561098615918929,-1.4839452127243213,-0.5998420150221974,-0.002761068121882187,0.9339153164947378,0.24634544859855176,-0.250256130854464,1.449916833081,-0.0700270971763001,-0.3452060595499774,-0.42112134877155305,1.2804964505894412,-1.3348036356318065,-1.621110017129263,-0.8031808928260905,-1.075459919273957,-1.225982257813587,0.7845039736924754,0.5736134815299734,0.3051266994461939,0.7305511615661756,0.3404327431312773,0.3476178269608711,-0.5617211077353852,0.44680766743249634,-1.517293240460819,-0.9060517793977126,-0.05929613256030625,-0.498918233370923,-0.35875217756218175,0.5841739657826808,0.03662819380301781,0.8841648318135974,-0.6208557149651042,1.514245776924031,0.6871992537146896,0.5560726089867389,0.5209086647477044,0.20671203866152754,0.1394319123625916,-0.49920025034218696,-1.7751429566290164,-0.6592783664447651,-1.1717368074706003,0.4107526349488508,0.8689440356088817,0.4362478033984798,0.6983196727489988,-0.07888280606365979,0.32392995133719293,-0.01710511497408156,0.9030082413746082,-0.7588799015815283,-0.24826127709730245,-1.242477309700448,1.251297651762482,0.3392873964502488,-0.14128548630437207,-1.7404493048817138,0.007690972850434457,0.1869446355279562,1.4617473264592165,1.7959835923007776,0.4259348781213471,-1.1644663101649957,-0.45452293733134835,-0.5932572058273122,1.1658187885174252,1.073053384772281,-3.0865217700827143,-0.5246823861154645,0.06958026110612253,-0.7661805963131232,0.8249011112962281,0.9835331004159062,-0.7664094242270625,-0.40073512474636647,0.7566460474926777,-0.12553115034562476,-1.0123127042974016,-0.45614575558511555,-0.33688563839046143,-0.9394570530460763,0.7165694733470147,0.4153925362224226,0.22762762336922196,0.21855960815838782,-0.5213293438482753,-0.05959173418169443,0.7939640257215089,1.745990364914313,1.287943183852696,1.2436134391054026,0.11313288778588039,-1.0108027214134578,0.7075983891842018,0.9605188330317789,-0.753375907908148,-3.0373495388901115,-0.9338841803414983,-0.8268996346703393,0.9692531529542775,0.03810369064598301,-0.7610682038048857,-0.22733126832192752,-0.2611935196241071,0.306296091320494,0.11806852192137311,-0.7287761498138924,0.5005803119051226,-0.7742519807016929,-1.3473158884007386,-0.181887491179008,-0.362817301966126,-0.23732582544517916,-0.8339761700819989,-2.1146375842028133,-0.7924479685545556,1.4179927240909669,1.5278678686657814,0.6784692517032115,1.6223372189915384,0.7382214473668273,1.7850448978202407,0.05537582886395983,-1.3465282336514084,-1.9589537640173824,-0.2568156037023839,-0.883946734784744,0.7127709360538974,0.6946627689844086,0.35060009526611435,1.1602373738951695,-0.9484890691191387,-0.6983033618978243,0.389334884859446,-0.1800106814166308,0.44488766103766497,-0.39479345466308324,0.35302451316136896,0.14723391312683257,-1.1407644989805494,-0.030186937494397104,-2.021456616617525,-1.6388573674094893,-3.0127261547674107,-0.7475266517829314,0.19917980251471487,0.7749183485041703,1.9908227856296703,2.357507113444724,1.5498167380994403,1.3230763083075798,0.0998563902941473,-1.389389698583347,-0.7007225222358148,-0.1441159845377543,0.9653972208943052,0.4644569387320956,0.9451758725532233,-0.38293736054883654,-0.3343619110725974,1.1766082859414133,0.8532900595494587,1.0358212520370045,-0.4050321601476965,-0.39463206796832456,-0.9133360336578299,-0.8936136574736823,-0.00286118099974898,-0.15034367642883137,-1.8949565422213481,-2.9613211410981632,-2.616082617786847,-0.11794793110744903,0.673374640020052,1.4121721061416603,1.8581815121256995,1.1173439821202347,1.96534232991353,2.6213420683753967,2.8592980435777515,-0.5506557754350386,-0.22255431060529157,-0.8704164808428503,-0.14502930161262065,0.6998483872349628,-0.4966579330798501,-0.8407904235151437,0.5891181107891494,0.33393647218607336,1.5461580450156533,0.5966557010140703,-0.955328640404224,1.1745608701487698,1.3227765444577173,-0.8643177764374702,0.0354118789214953,-0.6271358297886426,-1.9876843820233872,-3.696251822704024,-2.630316285420788,-0.5863118166736687,0.42938816156415893,-0.4332232777451648,-0.046576668088644545,0.30362821990681294,1.2067664612828408,1.8213802501901784,2.105539303230431,0.15369930295660195,0.07722486259256722,-0.40560193590989774,0.7385206261194108,0.08342281827952724,-0.1284380681394797,-0.8126116433986935,0.6251555283571087,1.4177302404616348,0.4699565900376289,0.8255677490810126,1.7757230693416488,-0.9258812563544089,-0.34749412718876427,0.7367983288466198,1.1096809549691222,0.08785568612946881,-2.834963219376388,-4.708775211020607,-1.6076630565971848,0.9910498861342891,0.4970025967190645,-1.13715284416421,1.3392567479295234,0.83781821592003,1.0352278900965362,1.7447622670375613,0.8779856477155498,0.5748582854204911,-0.23403047312217018,-0.4517449518862517,0.7826914541928924,-0.057804757260163396,0.7596830779919349,-0.30956618416335735,-0.13912695100513234,0.6680712328987413,-0.4462210743991625,1.86235208362325,0.8776846860411577,-0.04433008342405281,0.3998430462870416,-0.32691944365373365,1.4426397964833808,-3.437643245457362,-5.0811643672432565,-3.924105252288939,0.03102559333894011,1.2711341494459436,0.5834162537820688,-0.010784711798815058,1.5499201647590275,1.1685692812753072,0.18683499812045848,0.49771497069933346,-0.17947590978823763,-0.09537637262775699,-0.6722004229816992,0.4718945264791347,0.37314439919626236,0.36516715484193035,-1.0288100343084738,-1.4423132911447665,-0.8700600881384326,0.36815625567058696,0.21289575565538893,0.7815336793592492,1.043753180150305,-0.04011466741354959,0.0214513179186717,1.0183009375650196,-0.7444909940489599,-5.467634939779094,-4.4700325326453765,-1.8752326812422502,0.7797948063645302,1.7537477277600086,-0.6736900934293716,0.0064546951372263725,0.5642997071956566,-0.5459180675489876,0.023287864225841358,0.002535000221896569,0.2276534607793858,-0.07377232825450962,0.7999476866947743,-0.28340263395159504,0.6196095934905628,0.4818490354935403,0.8962832713102045,-0.357349247972156,0.5255380892134213,-0.5315386263189107,0.007469937681380397,1.7707208348471524,0.7065841137429871,-0.04615089539711798,2.1298191212158817,-0.29818481748541903,-2.1257936958503243,-3.2098702340822065,-3.045208355797153,0.6242252031510553,0.9308997719779917,0.8527011175768656,1.3077001504286516,0.36407382132537913,0.1179317691041499,0.6427623991861324,0.5632562435679858,-1.3040702004424127,-0.015056736722800338,-0.07911075384053315,0.6026215655262924,-0.2810749632323772,0.18030154058376666,0.935377753318308,-0.7895493586314857,-0.628920342910781,0.028320477887582025,0.21471576622668753,0.6209845143761509,-0.5866898193046622,0.8266522602070108,1.180700706549667,0.07163688062176508,-0.7006597944592549,-2.032041286798121,-1.5084302149769087,-1.3746775845360018,1.2996641519674998,1.6320151873112547,0.7938331418704611,-0.16668623938994784,1.7957255627027653,-0.10594729344777247,-0.7084589007656183,1.2030750901786482,-0.8004225627763628,-1.2835659266281074,-0.4734876584200592,0.29998323724923376,-0.38073143868534554,-0.50855094477453,-0.3877035141227648,0.43075926994379,-1.3430347070899142,-0.38602785777587334,-0.9643478072438947,-0.558307760977549,0.8238944885437328,1.2432944416670617,0.4131440820343335,0.09295725814815504,-0.8035697917409533,-0.7931685092722602,-1.7609372427267411,-0.613584260545574,0.28544475319362206,-0.6579053292379116,0.2486385367007978,-0.5144431327300908,-0.03487423387398734,0.29426564554640966,0.360163372178958,-0.13211573489451583,-1.1937256401318765,-0.9254544575397402,-0.28132483899256033,-0.6898485847515823,-0.9781423707711508,0.32536174513364147,-0.7923301883416796,0.8536591300413757,-0.5488706824453669,-0.4312081442817708,-0.2880957728351047,-0.928650978110015,0.23369865166984594,0.16279730672256335,-0.7324194194456096,0.8393623604355602,0.3003726467254303,0.5975227323097226,0.4853442625094365,-0.7173688193750097,-0.09978830999784126,-0.6337712313231293,0.009971027786259256,-0.6506607150394955,-1.820009904478148,-0.21521998188626304,-0.06839608681537866,-0.15296494251665874,-0.4742469283296165,-0.2079769043571468,0.12539989701358292,0.815193932350084,0.5869641705418704,-0.6905389099337208,-0.8047557883376838,-0.30489231968053804,0.041982739735380886,-1.8040207747266181,0.17128258711139788,0.23636760533761625,-0.2778506116838134,-1.0600932929290185,-0.8679981104429408,-0.7059768934544679,1.2976595358804586,0.8189756699177355,0.951807222050259,1.1122880513281201,1.0168665602334064,0.47409483755434323,-1.1729126703743518,0.3164562115245474,-1.370180578961692,-0.19879526492969385,0.30586354022384665,0.11352260964520482,-0.6616475145759411,0.23723863685244412,0.8536028283725907,-0.007036725261804144,-0.20707707049019033,-0.21864876344374146,-0.7471061930330982,0.6085748753700391,0.1891302168194655,-1.5582677175853044,-0.35475570917999283,0.386419254958085,-0.02635191276718144,0.1390012242705508,-0.8946251035223247,-0.6376113812687823,0.09170606198615558,0.5449237031100507,0.7430309417143998,-0.2272255778612282,1.3780041656665611,-0.044728762286971493,0.1710946311964997,-0.651664667769075,0.42221632845559137,-0.5085045929740368,-0.153288428835477,-0.8373463820441895,0.09541784348790153,0.27807737187863313,0.18032999994862214,-0.6451236292129198,-0.6427690380947158,0.9395963876516069,-0.4012776265296458,-0.25323667638714065,0.28932454846350014,-0.28341827202434655,0.309576573656512,0.4003867635919362,0.16312824848495006,-0.18831151274805769,-0.21940254659895098,0.0986776151244589,-0.02457793315086072,0.6475734674284221,0.6229444974226173,-0.1363906245846292,1.2815741030038243,-0.07949658227679908,1.348333849786978,-0.3651362707875699,-1.6191247166164702,-1.8907989559164986,-0.14953024815750912,-0.29012976704219867,0.12971075780840027,-1.033428972621214,0.40467201052609775,-0.38053396757652835,0.2203765806755782,0.8354652364553241,-0.3141753555087443,0.7453438377491441,-0.8472317050316984,-0.10691407629510634,0.0661779268647625,0.5195454556548282,-0.4851723358211439,-0.7392064185917797,-0.162867197360195,0.07819279361700046,-0.05976702627278352,1.1615021777612546,-0.05273918111509897,-0.5987201704488355,1.0390561224539792,-8.376808721401096E-4,0.37415189839059143,-1.2010534305640632,-1.3266797236304124,-0.2163875053249865,-0.013527389884146708,-1.4426403461296082,-0.885102524445505,0.19136515624645045,-0.13488045126850584,0.42179884184633404,0.36395552805768205,0.24681749979107748,-0.28081827809993976,0.8922728141178485,-0.8865985043693732,-0.3559713142204487,0.7642262700062689,-0.6071904057907881,1.0019836286986472,-0.521231547146189,-0.20025706318459785,-1.3151908679275675,-0.7482936699614456,-1.136434541024454,-0.565795110717329,-0.9977223492702566,-0.6510288780499718,-0.14316624691304258,-0.13941305553666028,-0.21230191165750978,-0.05789939589917926,-1.1537470160890786,0.2393184182103925,0.6248564924363896,-0.4849815116351902,-1.0319500159082833,-0.1932292187083847,0.10072781338383376,-0.4061395212871628,-0.08448143612601466,-0.009764102583462275,-0.9793995304521488,0.8898746048680508,0.9291918155366967,0.20266278495420378,0.8280990102272334,-0.5013540480668401,0.7983516820747218,1.2003588015873232,0.9631158667954588,-0.8588089803577087,0.1754200955701419,-0.5164667910808256,0.46088110892883954,-0.10113168959779929,0.7411634253455546,0.47399158648601936,-0.718721780875949,0.5016699220626814,0.8236582760243052,7.764592532227406E-4,0.6937780048135259,0.14627660195581357,0.44654967100573484,-0.28697655208318856,-0.2802985340769968,0.7214057746183997,0.006718250155566929,-0.5195728046497912,0.7519878234105233,-0.9603665593924156,0.322706003124327,-0.38595554592435616,0.6854047201065447,-0.16359485856479322,0.7940883776333938,0.7759167745248471,0.8289130383011494,-0.0033685349834157324,1.1078356030544698,-0.0531652407401524,1.0061921749263683,-0.1984074044958796,-0.10549169418548161,0.8058392889477136,-0.6056651798645291,1.0232330731376358,0.974818783972726,-0.7026500231230712,0.8447058830802088,-0.7424035185626011,0.08590893392338117,-0.3520423534957582,-0.8312133052445732,-0.6914434727134251,-0.0372147766325579,0.22091231974088954,-0.3426121241852227,0.6239677789446794,-0.3014368192760908,-0.4048124612809705,-0.8632347295574447,0.17078741829537525,-0.5434020573108789,-0.7126856401208985,-0.0072960450751571315,-0.7994816997063023,-0.9840597353498585,0.40446904311280385,0.6609446500086549,-0.9545011406443111,-0.7497610282136049,0.294367950940992,-0.028243755089133904,0.7798919131385191,-0.9619277588957802,-0.046794632672588765,-0.3201259652710924,0.8802023769378926,0.917757158129086,-0.5319368096561401,0.8610172308749202,-0.6810212840933385,-0.82336006285083,-0.6497014876925504,-0.2355983616355386,-0.11331906967822447,0.004322279047867184,0.2589931430483806,-0.8186323077521823,0.960290702233142,0.8413004863224747,0.32079380613070324,0.42731485452165174,0.4298945146478582,-0.8794382700784854,0.057558474991434294,0.5611892107686601,-1.3448320872368882,-0.666227516991356,-0.5450825133391594,0.01412381850933103,-0.27974048730083756,0.5433403012029566,-0.5648690307513847,-0.5879673766859184,0.9385952740939292,0.13894910679818762,0.13726569304722003,-0.5280645424795425,0.6274130112091143,0.0986835182726804,0.7048043611272061,-0.03465690374586997,-0.768945132665095,-0.3764436860911766,-0.6993686330357277,0.9952208819033547,-0.18333436227156463,0.5250067927071109,-0.07346422427043697,1.0503506928969175,0.16504355600914547,-0.009992704826762355,1.1430335866150385,-0.5256615133809474,-0.5839110110025847,-0.1506009605914686,0.10163332094263833,0.3950522287691336,-0.8115961387864435,9.112741086367158E-4,-0.7955260826489763,-0.5164511843355727,0.5502492761709133,-0.489265233521911,-0.06493068023809605,-0.6676325585933918,0.38877706957615876,-0.48152791511997406,0.10533723290992492,0.7032497181256256,-0.475208268450401,-0.1153967607358633,-0.8603748632282519,0.6181386801580863,-0.5139248785463941,0.0664636898810903,0.32427819658914986,2.2544469300892547,1.6816541367807136,0.7584927517710576,1.2498264016643774,2.262996771604795,1.1395984811200068,-0.15963181992427677,0.05810079586772882,-0.10721656568674631,0.9257235423974959,-0.1031015275874397,0.48334199371501696,-0.6698977900144417,-0.34262798967184527,0.7843142384844207,-0.8569552232813432,0.11404024347895668,-0.24527302340148682,0.8267395814655165,-0.7264451038166598,0.9019100805537577,-0.4963204351205637,-0.40172128988162126,0.5117747125482709,-0.7550151196128747,-0.06326006796811051,1.4650622525856738,2.1011838156616887,0.5317865313300635,2.1224181626638865,1.9467219981442307,0.9730736916171142,2.5789426007814873,1.7535612489735473,0.35430255788565584,0.04381306034729954,0.9652496023805183,0.897005340076289,0.28878931909043354,-0.7987670396633783,-0.3939287449840815,-1.7749887897449654,-0.49112237196640585,0.5788666829241272,0.5893516851951734,0.40076784061785387,0.0653255054184001,0.5140580924791762,0.6334188336170623,-0.01799298267116736,0.12392652096129159,-0.48904345688389556,-0.4290497816785194,0.7241470064853583,1.6018064255957238,0.3442190267161312,0.5612598776509286,1.8739655576216403,0.8668334140246683,1.434331911521293,0.9500112428066103,1.017282494940819,1.3919101691967877,1.0901672125884596,0.739564730985397,-0.7420476325667635,-0.8056644743101076,-0.014329039963599174,-0.07848152642718799,-0.6642597787616985,0.28993202990448663,0.4986233575063736,-0.16304329386471686,-0.6612842004730799,-0.48798346082978994,-0.057335946714178236,0.5221514375887746,0.07348994211939737,0.9630278146567434,0.7785123989739721,0.8779038620436148,1.1885182984829488,1.1459459375722711,1.651488285875143,1.13018185171071,1.3933042637711779,2.073220933320497,1.5107568281808037,-1.274916082865274,1.4588808742936619,1.2523364114765867,0.2939994040446473,-1.1094233396397255,-0.6180770404305524,-1.3822893544122636,0.38967059757446965,0.5398922129177754,-0.0239398919910658,-0.23211588815809975,0.4175905352010245,-0.08952321646556723,-0.7559160779498018,0.42426465546239756,-0.8757657432524537,0.16967502334751253,-0.8364969035384602,0.8703437584457552,0.2299095957825043,1.4658427438630042,1.0259538580212122,0.9095808646268279,2.307045404605882,0.922851034468372,0.2726558696567007,-0.16984505509394449,0.38402264619414567,0.4846596752396248,0.01052435710456611,0.17678895866371377,0.21638742687059467,-0.2984188826249176,1.2333909813181467,-1.2391017906770154,0.28582286808095714,0.30471217747137336,-0.46590000496688694,-0.4083409712284457,-0.059103666058145786,-0.3615580791593276,-0.4343337247220261,-0.6197916201937875,-0.5257378819426509,1.1034434502270354,-0.42157738822926794,0.5651489528418026,-0.42612312412604303,1.4649022881464566,1.3051778549020483,1.3750552834344392,1.612500796214738,0.7220265761744814,1.5134629542504776,0.38041615383645977,-0.6897969422907835,-0.07747782245610302,0.6902929395030764,0.25438785375856204,0.016823364575199708,1.3386813594230234,0.5481434715578116,0.3065868035508629,-0.4111869970391711,0.26494449770582,-0.44729771513970057,-0.8818974363545471,-1.2795743472235301,-0.05929235861006567,0.5141673556703771,0.40731069459933217,0.7974183297247832,0.44692122331961365,-0.7496978033279469,0.08446930851219099,1.3327812844772775,1.0438221543318846,0.8891262946046636,2.039578349535442,2.15477814177067,1.0348136103512244,-1.1825373409365956,0.5229530984347741,-0.4312646382664107,-1.3555374641905498,-0.0021418649751188783,-0.33837355609516495,1.1663631518327962,0.9336102307277244,0.25431071151861806,1.0543128963473232,-0.21375765281682746,-0.5565813787272292,-1.2731466207499353,-1.1001451063961438,-0.6689533588535489,-0.6391462357885079,-0.0845457718703977,-0.221464240033988,0.694228776405145,-0.5037496046131424,0.02117952554328733,0.7273207098408231,1.0072051211589563,1.274201698799289,1.0072091386202155,0.6927790671014492,2.0309029623985473,0.04145987739130216,0.6103587956978365,-1.3704562820395427,-0.7587454028568755,-1.4266121117878783,-1.9891001490061313,-0.5036885257546163,1.148355543051273,1.873580217591261,-0.06354756673677009,1.2220288810115405,0.5169628920909116,-0.4544493162530927,-0.8221565241378742,-2.1535706711283344,-1.013593321029101,-1.0468786559212582,-0.4247388128222447,-0.01707126502095174,-0.7214942120205947,0.28607220560820046,0.8895672627660637,1.071542977766955,0.162511330668147,1.0355550212259088,1.5651403795946845,0.6967261269424737,1.4869639807008257,1.0933205900347698,0.6596630907899146,-1.970000282688203,-1.951862506425829,-0.6332798124620191,-0.33937949072701945,-0.7105407837545292,1.1618154552448356,2.017032696814344,2.3436865996826515,1.414623781938916,0.6339528934810044,0.554493942771242,-0.02798203638517343,-1.2882865670713117,-0.6385263754713225,-0.8936002815745482,0.7455787319637167,-0.05933620977064933,0.18298491346920617,-0.04210359449508865,-0.48619021362635917,0.7171844649573361,0.785023067679179,-0.14175857732647404,1.2532530569901068,0.6047536636656183,0.6349947897427206,1.297459190972252,0.15520556014055326,-0.943901891472027,-0.3892116029058471,-0.5346015182415453,-0.019959562353809794,0.6270570078720711,-0.06410128093748678,1.9282413011619361,3.5020782578757124,3.14770220873984,2.429839670704032,2.6300813649780252,1.0056263035536133,1.5675066298489924,0.6220498499424295,0.6679040832245593,-0.4738747261655857,0.03934386027716422,-0.6982197155408735,0.36312585389125274,-0.511111090622577,-0.8792444109866376,0.5780038959995509,0.9232100177639362,-0.10542430087882636,-0.8892303989594847,-0.09486568777930178,-0.6260804344984091,-0.17505920702262384,0.09630317106416744,0.4660371510312478,0.12524160043770274,0.4411662753608734,-0.6136214515737547,-0.7126842021840374,0.3850059154663591,0.6638416901402097,0.6960112048231039,3.1614084834250726,2.3265888244870094,1.6467504015640586,0.798905346120831,0.5349519003266818,-0.4020655124623812,0.8340392549280936,0.9932491191278419,-0.06663035274516278,-0.24886483655493782,0.46303770060839977,0.7335547751934056,-0.6305967324361542,0.0952057377009729,1.115481669513401,0.68910002850435,-0.5379220465358433,-0.3635859730225484,0.055317370318125794,-0.25026960046285673,0.09664755225829409,-0.39357881226231595,-0.4850432197846798,-0.25751069244986596,1.6667000283000366,-0.7260892045367711,-0.10026564692242768,-1.115444723958401,0.6247607774501092,2.3684314709224723,0.8824117844646737,-0.053970135313275686,-0.25030354730022325,-0.8025717481748526,0.6183255002233269,0.9534922699101382,0.5922548839827948,-0.42503442560069565,0.5299345963441162,-0.7262741479028268,0.6168959651154635,0.9882041744091286,0.6921293021548991,1.679445047109787,-0.6988584798250167,0.6571958570231758,-0.23159528444313912,-1.030565928288359,0.0949105790052672,-0.7432177607811109,0.414325948600209,0.4107061252998472,-0.27910384871770166,0.3793508326834141,-0.7153401334200519,-0.3152369591888002,-0.1788422891495115,1.7345376936297796,1.9591463150725537,1.3151273598872657,0.3181903938505264,1.0639274553200857,-0.09982286491912794,-0.5207034718867353,-0.23034648290271628,1.078716349921035,1.1771820941175544,-0.2243009356324594,-0.7624591987312882,0.06308756574257368,-0.41339416749539215,0.8536514551919357,0.7850531734042621,0.9669634058460148,0.9763831472686137,-0.3998568407793085,-0.038046446784498374,-0.28368972102017687,-0.4538062527375372,0.5745858246676506,-0.08864500081973202,-0.6993493020483428,-0.023102194729083852,-0.0594502672678336,1.296356678995398,1.0307235844100922,0.6302542129185251,-0.3411110444657854,0.40521333938671045,0.4486869438066702,0.8916491058261218,0.46293214619311174,0.3253650417213713,-0.7041878183757392,-0.45366573769111335,-0.28959199815922987,-0.2277282108252651,-0.7840039374654815,-0.24646564438185756,0.6954455414068467,1.1743942201584148,-0.19255826060393824,0.32856481029713835,0.8826175041417895,-0.42703078091453195,-0.8762154614470463,-0.10045951301859898,-0.35693740887122866,0.785140406789803,-0.04174228637802892,0.14964390967731003,0.05618121802648873,-0.24828868158831768,0.9770235271364982,0.36861729289937384,0.9564020267532806,0.7657379590536499,0.8650621699726334,0.44461587208807873,0.0526510110231922,-0.8020226830471214,0.8816344295592132,0.36487766548718703,-0.9734285720877668,0.5407237731516309,-0.8200099840512868,-0.731513713285506,-0.06003440080285083,-0.69495294538778,-0.1509072470127269,0.30366506435932994,-1.7356752915519942,-0.9670803028651593,-0.8951095478549937,-0.5166458276508408,0.12587317705352422,0.4972252605658495,-0.5752247083997147,1.0210897057592516,0.7880061359670062,0.34154128709124204,1.3506841526082394,0.7522165481302289,0.5580283121412994,-0.15522431688047064,-0.6921867024442276,0.7876799719458543,0.8060355408726595,-0.7060314566649826,0.21348590364195708,-0.12955195260425645,0.06262163739895438,0.20158277916352135,-0.5082799836796604,-0.3079223328291774,0.3319486004524098,-0.14602357572119928,1.4919482764186323,0.026217821567811127,-0.7870269746029156,-0.17890610396049042,-1.4694872906435232,0.439774213989066,-1.150011302494638,-0.027772328128868064,-0.025657035657284465,0.0336461696113903,-0.03523299138839292,1.0824324175798774,0.7052678108095949,-0.21075887389923464,-0.518214554133997,-0.705360946611613,-0.13549087234903961,-0.7304484189233578,-0.3323074017155161,0.27474090377235727,-0.5467366158818442,0.8083262995942004,0.62025277124746,-0.03893567467015553,0.1620731809840795,1.1036857618212625,-0.08299010094546856,-0.046522277167853385,0.5136621152474087,-1.7247624019202508,0.7114059744968221,0.15683731749025143,-0.8189445126454408,0.25584033777773457,-0.7948945389088079,-1.2998158127576094,0.2696074423665524,-0.2614749337883127,-0.3626992074786514,0.03679010165752422,1.565587356119387,-0.358654871438979,-0.4927938875987002,0.6003272762764774,-0.7295137947544823,-0.34469440542069024,-0.3259396239029322,-0.6498217026728799,0.21337452818178348,0.7366779056484506,-0.1155923977316343,0.536234981807937,0.14525303765163444,0.21628713122547505,0.993199475279821,0.13300933895307648,-1.496315710524208,-0.18747622777321196,-0.44149137362777996,-0.5630901667147231,-0.5991433186192072,-1.4502190794214764,0.27302683325448257,-0.016465993263503245,-0.934630583362232,-0.11521719356040404,-0.44814075395520003,0.6324866813538933,1.7775314537216496,-0.3138562367757806,0.32880025871986474,1.025868273368471,0.9823884661252978,-0.0054572290272224605,0.09573167512828104,-0.7230551208380811,0.5702519058923363,0.0064852000180868315,0.3671871130364067,0.3738258286845553,1.0175316536770023,-0.7610569917178707,-0.08982614568778365,-0.6014226316930459,-0.43526268762323317,0.3368692476896315,0.08791932977735026,-0.10319678112719921,0.38298688325267194,-0.37364949617291376,-0.632635560095688,-0.34446319667523245,-0.847900285754932,-0.6713303391185619,0.6615599200137504,0.33470783721393876,-0.4041895153242163,0.5120967982482506,0.09497757905079464,0.8685540361330032,-0.8886116203006293,-0.3422664808467151,-0.08686240839201242,0.5586177345701928,0.4103520312339192,1.0434749963598196,0.09563103137127847,0.18682159395662823,5.231878931831644E-4,1.3200778741770502,-1.3047403621759859,-0.24349791244108193,0.5951436477142079,0.4631732299739867,0.7607521556118649,-0.12821763403890182,0.9117751473346672,1.2830233403913571,0.614857454271135,-0.1591929519301328,0.19517476751889626,0.10996223160751681,-0.3307901561488609,0.29067717746142124,0.3781139033182083,0.8492351319301561,0.9121471995109837,0.09684572236467817,-0.7454530245133916,-0.6956918624916213,-0.31745847282240836,-0.20987926740802654,-0.6677457968971053,0.33452436694250526,0.8198714493609479,0.4917068089051682,1.7845384400415685,0.5929890320264481,0.47309997960467937,0.38076885009702455,0.1941739158858299,1.1001788000655377,0.32743411775259906,1.4062836265959184,0.5722604984566806,0.695430189443428,0.6833347663794183,-0.10835372585293873,1.4905106227158458,-0.02255483403125427,0.8643912539926633,-0.07417175817722423,-0.5652472401795962,-0.4605362324419787,-0.7749025770049282,0.15970030600247187,0.44510647400125064,0.7722939757652485,-0.4985983249336208,0.35446705461843564,-0.9125608494554919,0.9407104117479017,0.8004773203111911,-0.8565333227808658,0.39112365551600486,-0.5793912460523191,-0.5825658835113086,0.4652925662932884,0.8209035904487019,0.5781929507401623,0.22933191771121153,1.5175192903515409,1.4258454785738468,-0.1989595934312042,0.3820175201468151,0.37036758661402247,0.2223681058554373,-0.2887672219989818,-0.4039412554440282,0.4315356255754001,0.6314244297770225,0.3297596953458108,-0.9798021975818161,0.5690959775639154,0.16912184709113962,0.5383575598205437,0.4835606263876251,-0.05937241807581595,-0.8576843491598825,-0.014262000461364636,0.6389407796183497,-0.6743759261368687,-0.10316309104804208,0.7612548174013339,0.20358418070076295,-0.7521811723301856,-0.03732252565549699,0.9515756159630214,-0.5354730556804986,-0.5123793776223937,-0.3446337001900616,1.00820125260987,-0.5745494239086636,-0.3952225206899029,0.00506596779347321,-0.6580632309211113,-0.1575236945524161,0.48498497804246354,-0.9312494151668126,-0.6969430311158789,0.07211553580671345,0.8685302753874451,0.041237163129004495,-0.7803571638243627,-0.2170424630409482,0.23152658328776843,0.24620490504857573,-0.5538121825125304,0.43870035205540187,-0.9605643096410039,-0.2287052099661504,-0.16651665973544172,0.005978917981115568,0.9441522010793052,-0.4333814266687445,-0.19846021337969916,-0.9991959692571732,0.1845794257838758,0.1711888268792746,-0.6481560436838282,-0.08620089754633332,-0.8733559422330472,-0.14247394903664853,-0.3775651033178845,-0.9255063298298409,0.8224690919150763,0.03409706897638175,0.23554232933411878,0.006038629485497937,-0.13273995965103746,0.1561097878074047,-0.47292714825865456,0.7680502024484617,-0.6357836989076013,-0.619525216400344,-0.3938587929767048,0.8501276477835538,-0.05624190894597847,0.1918279581966016,0.1864380057498074,-0.9266071570800993,-0.38211600676377677,-0.18130575502821045,0.7176649781246458,0.5705709367816634,-0.3824065263385724,-0.5267481659048678,0.0841686074585193,0.9819637760430024,0.36340689112604685,-0.16716128205395697,-0.5507659494935222,0.9969694260420305,-0.662150212643462,0.24453284127331387,-0.673945336530287,0.4368008991837151,-0.44240575931501125,0.697775071908703,0.50355050655233,0.45142732563397714,-0.5288759406547114,-0.1936787465636085,0.06812549128494827,-0.40718224960323635,0.1616665533770561,0.6898963569856557,0.36180459674423726,0.7563755648299362,-0.4511362014769418,0.21790801829170664,-1.044000243344913,-0.4967698834676128,-1.0357923869572976,0.16044050262416729,-0.920491759155818,-0.706147143464468,-0.27879659977407073,0.21770074627213945,-0.044140772592469874,0.7039723797062039,-0.6502049718864804,-0.23642856498503756,-0.06870795327023879,0.9650761966061352,-0.6889727369381047,0.22466086913500316,0.7418210211883491,-0.2815053102956797,-0.24602997799772175,-0.31928329422909824,0.8930300251283975,0.14548640924470335,-0.2674400414468891,-1.0066230494878754,0.7053032256019314,-0.7131530970787708,-0.9547441793928445,-0.748704193654369,0.14367194247038548,-0.605242116978218,0.1716702882744143,-1.1530691919330782,0.3138198158770971,-0.7018007530178803,-0.5872195952633953,-0.8218716840489847,-0.8219021389671296,0.7857355636649516,0.0713946464562609,-0.357194337936695,0.1973011270751511,-0.31761545167618094,0.40212861066784444,-0.4454084316982845,-0.42441217080281946,0.2760730017062165,0.12203305048242608,0.6603876502777059,-0.21679738446419672,0.18226589480885905,-0.4852527794839113,-0.6301658119596222,0.1837051092598832,-0.9075292255132742,0.6908426635989131,-0.31091853908001377,0.32708595308860283,-0.8272620978240436,-1.0652811584382627,-1.0959071041320227,-1.3369385323113019,-1.0654036611227777,-1.437946764038373,-1.0727535105099975,-0.05274874747718665,-0.7544112987657554,0.8563810575601396,-0.33580724174674387,1.0705296222496214,0.6473166594716352,-0.11735926543810245,-0.5512568512120664,0.97380083961518,-0.4438021476851779,-0.5559794033218702,-0.24067321518540788,0.035399677457324454,-0.2877615581778966,0.12922853282459487,-0.7058845344137467,0.2918532929637796,0.2468988751402393,-0.8396786875511656,-1.3035449352089366,-0.851682655876368,-1.3842628767435081,-0.04088691648884103,-1.2775797774716915,-0.44327432316998866,-1.6725305462516349,-1.7787495532661186,-1.2034340907675471,0.6639342251126783,0.03684007388275816,1.0211053014389826,1.3933407685277341,0.008087663333652975,1.1933728406069803,0.10036462847473798,-0.5970352986938476,0.04618114192007184,-0.9376344809877122,-0.08212485161355332,-0.49495624303874297,0.21508415351028057,0.7869311970757125,1.0328187410276388,-1.1631473099649858,-0.8261313888529814,-1.0257116034096874,-0.6374822564897851,-1.2062420670409837,-0.4143135236203477,-0.3407730032939931,-0.7150645624467885,-0.7561111572849432,-1.9518608991751973,-0.6326003321387952,0.14426147680748616,0.6736641837202534,-0.10089040396953199,-0.18347131153860805,-0.5406686211380646,-0.193215523636921,0.9908565288554795,0.6298141357618257,0.6168897041807171,0.6492486750914642,0.6832764190257298,0.8349210572186381,0.9553361385567276,-0.6979352136480431,0.23692043716411587,-0.744103369722159,0.3089201701498732,-0.5385547987571913,-0.6164256576872896,-0.5039854508877318,-0.43505101524989415,-0.6841750544695573,-1.7312157113548063,-1.3732059201894478,-0.5896178070783685,-0.09339472798966307,-0.42266463622618783,0.8223261596473936,1.6776652453086514,-0.035793923200661756,1.5472767593668113,0.3456012266725039,-0.2256770095301404,0.7009979434529452,0.731813494436836,1.400802713302416,-0.4233799460251084,-0.4377160999954777,0.8214587266967945,0.8392391980846946,0.3012128608935227,-0.37338507947794247,-0.32818170547446956,-1.2727694378527066,-0.5501170531399752,-0.3381398788097141,-0.780633397084405,0.22564432138140822,0.0898863026313661,0.07390798530771289,-1.3361228309546465,-2.4045396621281236,0.6258061787043089,0.8678028306327649,-0.6551459931382912,1.0978528573869184,0.47400834634689726,1.1802122903575651,0.9714481286187184,-0.2559302473102503,-0.5910987921941985,0.5549915805445779,1.1922064468244646,1.9178147789794582,0.8808857457817524,0.30386006695432405,-0.6567845522860781,-0.8538374407903909,0.9287000326995398,-0.8441206241725333,0.011863368672516163,-0.36826025174819565,0.13443897131095026,-0.39594544368061346,-0.04891115476855188,-0.28042369496290914,-0.2594599465657468,-0.860551727424539,-0.13960575169715425,0.08269857753680458,0.25397342227152037,-0.2840753951073087,-1.0012360632143973,-1.4199151233019338,-0.161865306629157,-0.5715545126045803,0.8322715000946745,0.7877400637676943,-0.6312404363857642,0.6144576384258035,3.0910937599761237,2.6816197051577104,0.3506531645903543,1.0088412492549517,0.32741844777820434,0.7651439281378754,-0.7114778967842896,-0.5485597186804981,0.19233073205521903,-1.3821690074710256,-0.8830829955629333,-0.8777966638739817,-1.3444826325289014,-0.18469306989123793,-0.6210363523615958,-0.02005588948458297,0.1179567833386645,1.7469452104286338,1.076853001479174,-1.0022999834093183,-0.7957150276205113,-1.0710274776946036,-1.4122879902843222,0.176618517581512,0.4565395630862558,-0.42157094135791984,-0.6237710931271647,0.84158942230481,1.3430148518398688,1.9196733454055983,1.6530938781950342,8.325122607427539E-4,0.33924415183663487,-0.03138947560956155,0.40868923078634,0.6048771147858849,-1.2606082484118888,-0.8097956004112153,0.07030778826920149,1.3002332430816308,-0.13086035687409525,1.3931281272654528,3.1243506567871333,-0.15411668639362808,0.9712486853887637,0.9154413168900588,0.17061583191264187,-0.716713891922698,-0.18565747559477233,-2.35907910417159,-1.1244745069675373,-0.8941615484593539,-2.1103918415156357,-1.538599777326215,-1.0481059702435649,2.228118928625187,2.1094028742904047,3.0968422346606066,0.8362441498432965,-0.41201793961527844,-0.3639488165700132,0.7447247879104782,-0.8137164240434556,-0.9153706823290493,-0.5006132064377606,-0.5367491380883264,-0.1650593505607397,0.7518704247617751,1.3193212057248902,0.7840370258143982,0.7458868209890885,0.11507980391277109,-2.1110250547474365,0.7355785211157799,-0.8053764981479853,0.6911344616917333,-0.4209293222943164,0.022945869119310944,-0.685831355279727,-1.6265005277806541,-0.2711245984625235,-0.8912785075778855,0.9868152915198644,1.2096372706281402,-0.18656568343667077,-0.08210405668360746,1.6157738347532817,0.3979507394673826,0.6738858858378578,0.9335626645778079,-0.1998019214382889,0.2669971516731587,-0.7323725557589338,-0.35824333233608113,-0.019635752970096284,-0.4888591359990424,0.5758719997597236,-0.5081412646516991,0.20169057291018078,0.549056044424576,-7.787524047537623E-4,1.2965248810969725,0.8417241053142198,-0.1838962385281332,-0.11915120442586534,-1.0794566457938886,-1.2571862999597323,0.21939842218199015,1.1909695293807991,0.40845669465790113,-0.6754892820489858,-1.4638979035895188,-0.6735795047893112,-1.348477395850188,0.9373368808645756,-0.9079085927365991,-0.9576973531028842,-0.7471157921832781,0.14255115013616346,-0.06008876785159758,-0.4416422622537386,-0.6565832965420669,0.6250976347350209,0.6513521762698196,0.8875292370337127,0.32427898312442854,2.2200946955714933,0.9669590347567523,2.1396511856432525,2.0205010166997286,-0.45308146328161314,-0.7732045332102144,0.43596813983013677,0.6715598133099492,0.2776516054168894,-0.2793913266015002,0.7018230592784797,1.1557334814990223,0.6948150108531694,-0.4314514849582434,-0.3222803942733354,-0.5823771773496483,-0.5322300200402836,-0.5198357841209358,0.8156764791316954,-0.8013963237469363,-0.44607834973293575,0.015233419114351322,-0.49720998516628856,-1.5356446550233036,-0.038725506367761994,0.5986877915901808,0.6952247738118913,0.275875031254098,1.0259115154967475,0.7502345411783907,0.6272049724234613,0.672173345408183,-0.02723888604364728,0.07113983268176312,-0.7461476181307048,-0.019614096356062326,0.6091333510941829,0.5022399634897817,0.1172667865019187,0.9021794585586326,-1.4674147939966036,-0.7403236054773155,-0.9209734053260201,-0.1679165972111185,0.5351673917628488,0.5719573956616093,-0.7410404818885091,-0.6568578648360066,0.21537884122681633,0.42146789814193225,0.44467929709797427,-0.09421954520161159,0.05814850067684648,0.6562623498327608,0.6721104205866911,1.3679463041707067,-0.1082487421739811,0.14901199113307417,0.8777888750812441,0.5352669587322453,0.46384765672181716,0.007028898246101784,0.22226382549714557,-0.286402034451017,1.2570303749146425,0.6368486423513887,-0.002614045149288587,0.4907388542043223,0.34402642259747923,-0.3055503127226155,-0.47352144446518757,0.27585282101342484,-0.7872107863762574,0.6292707776481731,0.9186785176879794,0.21687532263581194,0.1900265074432374,-0.44823529909280774,-0.6851934769657343,0.5328827503452712,0.013627784795954506,0.9989731858036935,0.017218531930974224,1.2487509437494648,-1.4880521901255075,-0.5825957421545677,0.37610089871323094,1.4099226966699567,-0.3236032804343641,0.8164888580724802,0.43765681704341486,0.45248475356281603,2.3701252462293856,-0.9337267496459188,-0.4327895430659028,0.2248129229774267,-0.24540780434798126,1.119065448385889,-0.5421782612223482,0.2202138194780013,-0.19751065899399037,-0.7437135863284073,0.9139424645498165,-0.6429351783440436,0.9091210574420932,-0.011654835240448047,-0.35703682298350414,-0.11029653936816035,0.583627126242478,1.4454390320680859,0.6573225559789623,2.200283002136406,-0.6583371028808688,-0.4935557651588967,-0.658626423400718,-0.809307635645492,-0.3883403491944931,0.12424416764879974,1.800351493906012,1.1420180268396816,0.9580207476422381,0.40649737904656913,-0.30662362963077655,0.5766423786172681,0.7531102953438008,-0.7522786308380184,-1.4292603535420625,-0.7715399517024982,0.9261187347588004,0.20148747978463621,-0.9465661537166496,0.6336847155395723,0.8396220755512986,-1.0460493675620322,-1.0216448488382606,-0.5666883995416024,1.5770079631965541,1.10349117104747,2.6823753396928507,0.4076958716151644,-0.3218098477883445,-1.4200788473633015,-0.6810483013523032,-0.174559168517252,0.6638287700699134,-0.09063062620392316,0.00884152910455199,0.6026233658022654,-0.3290672418491696,-0.38635302840852753,-0.21036173173214226,0.6493711160501414,-1.3424450292190377,-0.5827446321209938,-0.694889386263381,-0.7866970012292547,-0.8585710639339664,-0.15389255187561504,-0.5197628509741303,-0.6918915157832246,-0.6729069853771308,-1.1805119212916142,-0.31847831055101106,-1.1285921342856575,1.5677233924845853,0.9696409720792575,0.4889885830722743,0.5024298767866971,-1.1658478379252435,-0.39710272890874754,-0.8418392243434901,-1.124791977869537,-0.18740267972828137,-0.16646492860064852,-1.3258292546054409,-0.2101135989385919,-0.14921234844264292,-0.2163323035571958,0.921315320456878,-1.502964885723586,0.43661691024619054,-0.23561450083785943,0.9468858297759618,0.8985945398407762,0.8602334766449184,-0.2454012425567768,-0.6317937085406844,0.5371176379063924,-0.4859595971099136,0.13035026536320193,-1.3274808730894523,-1.2300788031235892,0.035962025342873696,0.10062664102839924,0.1135685672481869,-0.005037153532264574,-1.3062540969952705,-0.8735458737965079,0.6469956075411661,-0.9908228901103973,-1.3371962734712222,-1.985159526255209,-0.13087699622271587,-0.47273979752369616,0.0039030364345524256,-0.5423748847038565,0.008404265112489491,-0.18367793510041366,-1.5726288186544712,0.8704092076184121,0.5090470627359024,-0.697240266826394,-0.4200235758953965,0.684408329384824,-0.11063738453534804,0.43295555652639794,0.23295516401507457,0.04448986116275539,-0.07256107831321218,0.04224870125100944,0.2333315664243428,-0.46919652004901324,-0.3790221070401617,0.09734919831698269,1.9200206560631874,0.259811342164868,0.4434272603562731,-0.937215847565352,-0.4439057409317528,-0.9457568960912482,0.833189457551485,-1.1108365128802649,-0.21656000966697708,-0.39915971929260174,-0.26780087816346687,-0.8196035832489839,0.5990035715792016,0.31927421614487433,1.1826359491524545,0.22327453722370488,-0.11157782224115385,-0.42487259844117375,0.3342499308791958,0.7966139713816823,0.20909285654081397,0.5232291130707566,0.2488526282980851,-0.721752463208854,-0.3920470285479899,-0.3021206037971977,0.6091630602732551,0.47428503321366444,1.319960344778194,0.5630340599196889,0.5391329811942148,0.9059720217389191,-0.7370183926236056,-0.8885224723456986,-1.2989610370673574,-0.03797436922329283,-0.9726041556261752,-0.1436016865945688,-0.6962459137056926,-0.004339614276552412,0.46951173220575493,0.08012247529043094,0.1001107106080092,0.4573513922851474,-0.670841234583177,0.7278162539087413,0.6916698581759984,-0.08659045704852719,-0.9831692858223646,0.24061686018023049,0.5133964832546586,0.2610061364140725,-0.9889529048723091,-0.8825084043107523,-0.7635868623817798,-0.24671551603540037,-1.1031140544432134,0.16399040572571494,0.6771428793489388,1.0631926219916876,-0.28869188983246263,0.22808497079418583,-1.4150185977551883,0.12076383283147434,-0.9225611482252184,-0.9007013027705707,0.1730248610990694,0.9987313706145677,-0.11338820112871158,0.15473017400821984,0.6386662221968906,0.20191749204822962,0.03616113901168053,-0.1786647282545368,-0.1010224602905645,-0.20785100766556663,-0.8924412653248452,-0.5539759943283021,-0.24858557792775668,0.3713905015799521,-0.11811805684220021,-0.8418363831053115,-1.4092273425740895,0.02811048009643866,0.5329770272831609,-0.7057476539232151,0.46058149260065173,0.662866339915396,1.0849028587466631,0.7009565099508522,-0.273245525307687,-0.3554813767529895,0.9808629821402731,0.40590474634040813,0.25245552125544996,-0.47843531450247084,-1.4429960608923722,-0.9959119436590658,0.47429445665604525,0.09904082934228728,0.9041050128642968,-0.8278707375537849,-0.9726054711003038,-0.7482321974075175,-0.6895147458699098,-0.5207633359935511,-0.32301816888026236,0.37427538058421495,0.4881933311385678,-0.02123192361365387,-0.3777418602578896,-0.9176417443083255,0.41028395784576216,-1.1535047940204168,-0.1786725519203145,-0.43723107271260936,0.22642043708053233,-0.2753915275177575,0.5723154029874715,-0.1538750694792136,0.3330195474385898,0.5818682331886748,0.3854393461207793,-0.6290862729762038,-0.7361286821158333,-0.8663931715314849,0.739661234975883,-0.10426124891136128,0.16477149049973924,-0.5978179946518409,0.01750900237009234,0.19620626948719622,-0.9970660718648654,-0.4632606129785859,0.6898412912929033,-0.8716578949206778,0.05367781920044502,-1.0506101749196322,-0.7777855431648285,-0.14261757401516698,0.12350064843770683,-1.1904166409663604,-0.9207797933587331,-0.9972198678391218,-0.7959708956549223,-1.20347994487246,-0.8999043347740875,-1.1036723178963848,-0.61670984006115,-1.36985153527281,-0.17661863835321573,-0.7727002974230245,0.05306882978746028,-0.9837876942313607,-0.603254992796006,-0.5089666612294793,-0.5301764584038908,-0.4451031657144857,-0.6152001224349406,-0.7047696650504647,-0.8754282859844964,-0.694125791876107,0.8983853769671053,-0.21817006658246638,-0.35876640615317834,-0.940697484086101,-0.37092051046394453,0.21265991660694555,-0.8525693801788105,0.27269934668323653,0.7941109615724051,7.279436325084185E-4,-0.9394753618479771,-0.8411875556721258,0.4124416903393426,0.20623362794407055,-1.0378591398211017,0.6846631458838363,0.7231975647860353,-0.8024486557560051,-0.9039406852812898,0.36228727975200237,-0.529079765579998,-0.6769471766297119,-0.9747700855189894,0.007219562650020661,0.5438423587783461,-0.8966345995967557,-0.23949886469550097,0.524742110793379,-0.387516726552495,-0.39769018006061807,-0.7770765113507883,0.10904183541975931,-0.6278893483223218,-0.31667991857787303,-0.2667424579187587,-0.7390122601946612,0.36669822005680297,-0.09604701960203131,-0.7895648074239542,-0.4196377390943606,-0.3152371784145787,0.696709028943358,0.4370544290780769,0.7266436614263037,0.8631656474132401,0.3763046158977301,-0.18998381763762384,-0.8444649411976168,0.02530789028375957,-0.1979365843838956,-0.006756077749697997,0.07796450933327881,0.07799513192387586,-0.5989392961635127,-0.03026934498149858,0.49671150165695677,0.6525845145083877,0.6970971561606922,-0.8674457141443224,0.1463274801595838,0.39983109853512167,0.4893265169956943,-0.7598503473649586,0.6954321835546838,0.26929453376508283,-0.5317138814400674,-0.4939010875908681,-0.33454105147414964,-0.8284827448235306,-0.3350844729636316,0.709434875283329,0.18051895726596015,0.5220565139157817,-0.508564023893791,-0.7374738195551028,0.8768051337917955,-0.6511692582752531,0.20525658715871886,-0.770941823080791,0.10228869689955933,0.39133736218434834,-0.7683434028598983,-0.07218918324950296,0.8397277967462012,0.9137057491319981,0.33014425487488225,-0.583293477169291,-0.2365364324360583,-0.9041322486705943,0.6012691890383839,-0.5622116049809364,-0.9731811092110881,-1.6656163626192633,-1.039474973486468,0.43825653387863583,-1.473772076027334,-1.6318188313169868,-0.08602039156567347,-0.506204784449295,-0.40014045233510004,-0.42617651622970504,0.15073406734939362,0.09447662125729459,0.2307507002429927,0.4012673982837927,0.33400003164737035,0.5155399343019244,-0.9681811802453799,-0.271365874100997,0.7346794303065767,0.2824995158424157,0.9603901222116529,-0.15991368575530845,0.7348256383822934,0.1461039169784085,0.6538865826300322,-0.32000256763436985,-0.3227471409399243,0.05490175229664891,0.209276848158061,0.07963040195892782,0.14454252233029488,-0.5874869572328439,-0.19626458100903088,-1.03475333013057,0.25916155281923914,0.49168482281255516,-0.5945457817226681,-0.6929697312422491,-1.1855703769630548,-0.3380674629993182,-1.2335316028698198,0.703056433217271,-1.0465511652459056,-0.256420216848059,0.38619977707638087,0.5354377410026518,-0.5595582223953199,0.8888941312702742,-0.17480638957919953,0.5910595151589404,-0.14699024363736155,0.2400896870837261,1.0380430769919953,-0.23838689337783328,0.8117125937470475,-0.04873978124942948,0.5303564016507427,0.8911696632698417,0.9356095099803318,1.1059304684489104,0.4838220498094271,0.8151340194307158,0.27065387584625245,0.9705772742494138,-0.8232619050258285,-0.7059095212355765,-0.4355898192984035,-1.248682727340685,0.5398583718412646,-0.18493986447452737,-0.8470634038312005,0.715430923521618,0.6482174806594411,0.5550429169290709,0.19287987484534375,0.7955957713002051,-0.3979496696579218,0.7152810384764433,0.11511520140970717,1.0637494092047606,0.5271240308110604,-0.4917407311899723,0.1803288075816201,2.4494428487127693,1.294975129187767,0.21821180955127606,-0.3398809595661216,-0.49203584065755784,-0.3935073576529287,-0.30465121066270584,0.6012327811611146,0.11194051227443633,-0.24223442963199698,-0.5591761758452194,0.3263576616664396,-1.3083293017584479,-0.854155075069228,-0.6679245383876365,-0.6231061263318892,0.28079428668346673,0.08290091064830854,-0.08485727086217312,-0.6929883191529562,-0.5039026472653451,0.8814065231697396,-0.14169734601283138,-0.26107708512979494,0.6469160966794604,1.5235376242433016,1.1909850945537814,1.2865175672732967,0.8174168374657084,1.2313623494119974,-1.0277700200404911,0.33928537721523666,0.29962308443337055,-0.40293379718245065,0.3912403278068943,-0.06039665674675459,0.28708105211655294,0.3520401697673708,0.5718577250207507,0.23497286228036443,0.9020732279960332,-0.14531907220474263,-0.4743265380108615,-0.5086237513209222,0.2545494932502296,0.06426465424026005,-0.23283730873477967,-0.05564625462826724,0.04578291665382579,0.6716331786717965,1.0367981602152998,0.24046009964228585,1.2033466674084219,0.982583570227773,0.47958209730175444,0.9400335703506435,0.8087914967677027,1.294125349157487,2.5857570885157597,1.0700102018181512,1.0725656917777047,-0.2246683900263065,-0.5223033722799381,1.1913723171839514,1.5984683882302744,1.3171457952170968,1.2414346406554662,1.0099770892652193,0.7635627932550477,0.052731559735283526,1.5135292372789317,-0.15259764408761978,-0.40649795274049116,-0.8701398065781643,-0.22600749887343038,-0.9291251709247813,-0.3520534334957313,0.8124081309610626,0.22250313528058188,1.2970112093059765,0.6811393181409655,0.9042810806987427,1.0438807344000685,1.5093762922531917,1.6289448811094502,1.430027219650233,2.3128222893615047,1.6922875790389835,1.0580818438845847,0.3469403838860579,0.4272694899972718,0.6295472044779648,1.4149256652145892,1.6362299645368727,-0.28860340783224436,1.3696606262058029,0.09882541532483048,1.01512358001869,0.7972714355508875,0.1632457233257422,-0.30481915400852905,-0.2529724896710797,0.8895344597187342,0.0805437766151858,0.6733720314692246,-0.2673881383078978,0.18025050467173728,0.5522501296281848,0.798779113731076,-0.543465854158403,0.8904408354318797,0.8406409880047228,0.769802233879402,0.02237853236677309,-0.22411923334384268,1.680396117737189,-0.017215915164424375,1.3038324402594454,1.6093535600605835,1.8047800063110504,1.4367256618805746,2.2178655174901785,1.5856056105002028,1.6174145823169028,-0.6330751368701504,0.31133185027470156,-0.15215885519663727,0.8605530051718594,0.5395233526375299,0.8710213309004399,0.5827635102261003,0.22200412885240892,-0.5124326120399639,0.37451688459005184,-0.39311931712714493,0.533622951347405,1.3296001551240042,0.20191711333653184,-0.09898984379130318,-0.9045050945161047,-0.1361022163510126,1.3548590336465653,1.7989944151441866,0.5165389975941549,3.0134962687701603,1.3410990703332963,0.5800465736527917,1.4701199628334087,2.2720724224905706,1.4211048750759137,1.6168690019000804,1.080136092583057,0.9359530456465242,1.4354823279229554,-0.6444265948379498,-0.5844399907091856,-0.19621133158061665,-0.19504087647280377,-0.6449937687418773,0.36361111271865276,-0.30520942087418834,-0.6658956044112923,-0.3208462296496571,0.2137551138025573,0.2589007456216531,-0.5521495201360651,0.7797098545259573,-0.3169981521368451,0.18433389638027264,-0.4964826740001716,1.7201308865363505,2.071721986740018,3.2467063025816207,0.7980844806725733,0.48494627967583337,0.5260544095674996,-0.44461349954176177,-0.7764499868036397,0.32107723756455453,-0.3312344114036941,0.09941264009307874,0.5023237422315734,-1.4745017458542087,-0.18588793645347831,0.23983064510567786,-0.18352639187881584,-0.22461003782976155,0.36661229747329344,0.4019946891048644,-0.2826594362491997,0.47665855711274496,-1.2334531489300165,-1.2508818307723402,-0.6766767607512805,-0.42166973272116975,0.39473801171958783,-1.0845215143511135,-0.5229693066633638,-0.4451030562734421,0.8613717354368075,1.4026883745647392,-1.3929261456136608,-0.7507436461656014,-0.1633432229807663,0.269217211459025,-1.24630969888546,-0.9671079310158214,-0.2190751469565733,-0.054006931308383035,0.11199293142726162,-0.31847380333188596,-0.3558213068144022,-0.8353324098378866,-0.603997635246216,0.8654602858522897,-0.42174046509273616,0.5023744661408622,-0.5201083327287681,-1.0166164251614007,-0.585612516692477,-0.7994932687400013,-1.3034202693450228,-0.33796475406053594,-0.021623827255407697,-0.45859619718574907,-2.000425561872102,-3.0152311909921,-3.169062070725129,-2.6993806371232387,-2.4489937863641025,-0.9115484740912777,-0.23605655155498445,0.6675997690633613,-0.17009847660597732,-1.0195064101853628,-1.3020724211916797,-1.4542218154615092,0.6492934411396151,-0.8011198794513162,-0.7300475699870882,-0.08109809396095523,-0.09271578804635587,0.04249131092575753,0.809303666794304,0.3586078553394165,0.7714142878608845,0.13083855072976697,-0.4118015503824875,-0.06532312906856222,-2.0714540032164304,-0.507803924317478,-1.3474306112502366,-2.4249916714186557,0.23233297214420065,-1.8631914387431945,-2.2016203948427453,-2.8768006225861638,-1.6249148633181307,-1.356285839410701,-1.2473482108075136,-0.8401326118916572,-0.3700302322371389,0.220844127962548,-0.6146449204061037,-2.0241267179646485,-0.35745619316407123,0.6837218382338173,-0.12594910529339007,-0.7242048919442157,-0.09685840042013509,0.6695701982788388,-0.540563748669748,0.7548334864737832,-0.44926130665104214,-0.5556892094258548,-1.091214449632073,-0.2814096886209802,-1.1872500993278712,0.4835781948674899,-2.0359691772562947,-0.8498749529536378,0.6443613957113355,-1.3117158476072595,-0.6744118722364942,-2.0767947395498756,-2.3132817690517906,-0.6067534380534033,-1.9801219942008252,-0.47150894484412287,-1.3815370579527326,0.9107949785170667,0.9683675140349944,-1.0971372072138657,-1.8428639374747664,0.2058210478541884,-0.3444056232752563,0.5263600578745111,0.9909547875190894,-0.9668894452218709,0.37028191908724284,-0.01297972109195876,0.5681613372426281,0.5460216035839056,0.08412754704364712,-0.186025030931233,-0.5749055899289419,-0.35748205039414244,-0.4943938854300781,0.08559700617518844,0.11282803101345368,-1.7199752871250642,-1.3190444790030382,-2.0730371653010926,-2.293354801409795,0.2983928085932763,-1.6698812035366948,0.010676903584366822,-0.3001341855200349,0.46265128826117374,0.9984811337295416,1.0954769942321905,0.7626489708323028,1.4907630349984788,-0.6611417964086355,-0.6642328612672302,0.5872280333756275,0.15712539950374796,0.7010046792854463,0.6009518639246998,0.024828511762107017,-1.3095709796210304,0.44807329751977804,-0.007530720341686023,-0.855261563546155,-0.5132850334104441,-0.9263095816527183,-1.478470015426455,0.15821010130091598,-0.7355174331432336,-1.1958961206851484,-1.320357520740191,-2.097488735398971,-2.2006367493216428,-0.8659738443320287,0.023016815616362273,-1.3193336907771902,0.6400140681722063,1.90356785390999,1.1736075563726396,0.23350579422011172,0.18198616171348936,1.1735608851145698,0.32147549096363265,-0.2887070932530157,0.3138972625684867,-0.1471673964340022,0.043048501016781,1.0071410295152554,0.3732490315318565,0.273879837140637,0.2755182549839737,-1.0656666138837112,0.0869692734250715,0.23177619240602457,-1.1191401115904909,0.2652068902144779,0.662087617068463,-0.11617614880581494,-1.3979582645814252,-0.5038488965721075,-0.6389737719574553,-0.2814722883234566,-0.026107216749291083,-0.4355012628085798,-1.1649915712819787,-0.5505743561030791,-0.01101678164606407,0.11523786431105401,0.2063419995107475,1.1533236499330284,0.6110650621990675,0.9145011112775983,0.6774974700035323,-0.9602094532096255,0.8431412154273071,-0.2210373304465496,0.31098467453434375,0.6324829190447018,1.0631749705627196,0.15213669850188163,-0.6465459724859406,1.043629031726417,0.5011028480197722,0.008459896964318635,-1.2745371371160361,0.544476744313675,-0.5002682417856444,0.8662539760403293,-0.5641135594697911,-1.100098266365344,-0.6255764980832796,-1.4233509198356074,-1.5381612838091683,-0.25802678177648214,-0.30641026017722284,-0.08998760884637631,0.0012019491196127786,0.1489469940097696,1.4203469038555472,1.0622982738729025,-0.25130231953645865,-0.2164433908445227,-0.29385092279137626,-0.06424566498794575,0.33311446446270254,-0.31500214162491674,1.446334464719504,1.2232754502145837,0.7661785372583572,1.069559985595283,-0.14002094278782828,0.4518308768476908,1.0563231392716934,0.5263113452768008,0.3537979091252309,0.11856919937048523,0.3232131752846324,-0.8016114018823313,-0.8483434859883415,0.29204866141636876,-1.4086725091140013,-1.3423186775871148,0.1600572336068526,0.0037570760778481258,-0.9771946243957101,0.18743986701381052,0.09061764878548714,-0.7941121579018084,-0.011615567735024769,-0.10440835710205636,-0.025741352806099838,-0.7312147127629326,0.8894880963193481,0.4175003183721331,1.268642182756741,-0.3034654016399316,0.25646598927536096,-0.05525239196251205,0.9980732499732587,0.06636123579857284,0.15624135338739634,-0.6016553543849302,1.2031024345587025,0.40268528227266037,-0.9675151924928221,-1.2286844501231424,-0.2130692781171977,0.02257119056231426,-0.0047969601022010335,-1.1346108795087329,-1.4486994750761912,-0.5895629003864913,0.03315478500616232,1.045339235385128,0.44811707722498106,0.013944442862413945,0.11923713204807639,0.2200798901298186,0.3766750183092082,0.3051266058727864,-0.12111525432538635,0.26707525804990423,-0.13269285795389202,0.6122690275337929,1.7774334470473436,0.676459699683614,1.2666947092933607,0.6500572074497474,0.3947572955040334,1.803650034856503,0.19457764975395608,1.0765440963246697,-0.6138218805155929,-0.4006636643405478,-0.49411344655562156,-0.6565975374324221,0.16496096176368297,-0.7677665229782322,-1.1541881490648787,-0.8336039039909275,-0.972426851904481,0.7319977268482558,-0.9554780036900031,0.7121788625916217,-0.14247769250350298,0.5702988655680545,0.0822496558212924,0.22825689353236667,-0.008423352448539883,0.16675777580332343,0.611616803344535,0.03843869730540825,1.1702942938108136,-0.3474267959776849,0.807693681925836,0.5168637959995183,1.6562758583943915,0.19906404361982416,0.7222719420894074,0.23811999960603372,0.6048498121654616,-0.33813446114006684,-0.2928326436623795,-0.931835876347228,-0.4957344651892776,-1.425595809686749,-0.4975140377131346,-0.058189909796851194,0.7326313852675942,0.908827132381132,0.16142930727885227,-0.3551664433115271,-0.7579877181356858,-0.28496079245574113,0.1020912677853929,0.2583425704590729,-0.07054067928278773,0.7911582081893781,-0.12619740920853706,1.267090114322152,0.055528840205691245,-0.7252966805007915,-0.8828122578687569,-0.9236613996131038,-1.3793059827272676,-1.211931869515088,0.9959281576090877,0.5919755674838587,1.1453851719000505,0.9329126611269348,0.315806718561533,-0.5772969433795953,-1.145599117139277,-2.139235501806939,-1.79390952213403,0.06263428504666001,0.6634511909037427,0.31594767461604434,0.6682277391026119,0.13903193024301702,-0.6551815238262779,-0.5078501656386172,-0.8185353662422012,-0.42201395993502777,0.5409789145848954,0.035845980930421906,-0.21588195205761934,0.524804273473434,0.1702818844775838,0.36118099330648107,0.38915289631520306,-0.09072896860393793,0.024773171952621166,0.4113220329420501,-0.8772294446909552,-0.3277861676383901,1.5750554566194843,0.3052104060741064,1.3558452072135663,1.1347684695573488,0.3238146143138623,-0.44274051723453944,-0.7890073566948569,0.8848229357276549,0.9287128872855751,-0.4348937750907423,-0.11653725684048494,0.06820571205051358,0.7605802840195672,-0.6806690057650759,0.9462792229284016,0.0686560965745433,-0.7612253079110777,0.19934644139393015,-0.4195315403684677,-0.5640159823953574,0.07613000176127308,-0.7683008002377609,-0.10273533394757428,-1.0835922126136697,-0.28614159418073976,-1.0375966086960293,-0.43592135063268017,0.29241569632340125,-0.01927025749621717,0.25396153631296864,0.8860548135112609,-0.4271509187723039,0.6052803776947746,-0.09895509143586453,-0.42954858450300243,0.03739203916820748,-0.5996759834637885,-0.7318543203685881,-0.26133600291812514,0.9499744000247006,-0.7291144431309236,0.4999114175769166,0.35901905846504834,-0.11926754431401876,-0.7195620480882228,0.5549600892320448,-0.13417635569417316,-0.659369097178411,-0.7020235458484186,0.922053655675352,-0.7394593137693201,-0.15383105330747587,-0.012020522676319399,-0.20189967641762116,0.7659939753319288,-0.29499659743458245,0.3830792520927809,-0.6724297655927539,0.8538568233508986,0.36195531589496477,-0.8689069793274693,-0.13000828831939185,-0.21289624198197846,0.39606549033797184,0.8096601879024148,-0.848092310662468,-0.5589914945741514,0.13220340022802568,0.5778306382563088,-0.21468323203086603,-0.6777871423774244,-0.5925551146166248,-0.7865092904545281,0.3522049455848961,0.15242768622001002,-0.5956324592715287,0.5992387871509324,0.4300952074257949,0.8462715373418939,-0.3225261140138569,-0.4912260625601854,-0.032526900220442356,0.2492600045578692,-0.5990334499084105,-0.4947139947481107,-0.8955291166648984,-0.6340446879329116,0.269605607818695,0.9056947933482411,-0.9190216634588635,-0.6093006199345545,-0.2374178301483172,0.7683907942508428,0.2799490666303064,-0.04657846631424056,-0.38892247737191243,-0.07547011691131278,0.6580600702024599,-0.5271604016049221,0.946344437023457,0.1833424160010444,0.44338718286555157,0.7821510715757588,0.843704834912996,0.016986730236043076,-0.7266458364692093,0.7096921585669039,0.7509516924947954,-0.7162533035476306,-0.264977609387996,-0.13141545265239976,-0.3327462785143394,0.7217638828649424,0.4358399647153529,-0.14758386563093978,-0.3697205076988921,0.6311994278055412,-0.30456033745025535,0.9429994664132999,-0.6633898373729281,0.32842920983529417,-0.6060457588476573,0.6986320249438218,-0.11267826648749102,-0.21828686261431018,0.7385131522439579,0.8536431111831302,0.3887361011858669,0.8922488302068731,0.29333576172777576,-0.08506147919764956,0.28682825580049426,0.1527808534275426,-0.2779938644199836,0.38512407969233736,0.9493155523468968,0.9721538223170968,-0.14903030779801252,1.1716177075284977,0.2792993395387526,0.7524259363753253,0.9978810214534114,0.975538007371834,0.9724537644129432,0.4038589226802948,0.9218350492557519,0.35675501291357464,-0.16423248488222797,0.4591299877306418,-0.4536299289327783,-0.20803475975807564,-0.5891799064743659,-0.42162328402343485,0.5956721062184454,0.22740805565217914,-0.6093579579595377,0.8329913929637778,0.5874778256677672,0.20662819615807856,0.7138101049157718,-0.6343078807106607,0.08755744355424712,0.26454668545804383,-0.1866415386658671,-0.1272334710920621,0.607637732263501,0.4555387066130084,-0.4957242268441787,0.7477495868834675,0.5028321467222822,-0.7114933721624008,-0.47616419353468986,0.29912565130759333,-0.4751946696662095,-0.20475104533100844,0.00573664399107652,-0.22677249974147282,0.418244261611484,0.5135781175683701,-0.09241333463991251,-0.309216481041386,-0.9434184906635537,0.31781995202379837,0.9110867466742375,-0.5224837663924398,0.32473138067041324,-0.49569676061548884,0.11221274154508412,-0.1401190743146928,0.6439297621148716,0.6372787267765322,0.9282212901138255,0.18692614086761716,1.9269717633460597,1.4613877849454893,1.6570900956972086,1.1693154891955593,1.6907185610235218,1.4911983710263872,0.557991948543041,1.044819742805753,0.4294074039979469,0.7198438599757528,-0.2394391232901877,-0.44262163348771216,0.2743394737894781,0.7744702211056118,-0.38423168731437135,-0.42206900292547395,0.8610364473391652,-0.7843248271494521,-0.7230371691131036,-0.029016766458233284,0.1495755509427892,-0.8304787231507198,-0.5273598171073406,0.973424698506167,1.1096649485071342,1.239294517701328,0.15668404883987655,-0.03894842314552325,0.5169533712901834,0.4911174178797996,-0.2504586939745663,1.0152004952804927,0.5038201719536461,0.5763411275770809,-0.49852603581853133,-0.3999203226843066,-0.2101096347593633,1.397373672296504,-0.39769414257313634,0.733318154633366,-0.1930781203839552,0.27670594940515914,0.13341466173602307,-0.9412467296248337,0.1976343165570107,-0.4184465292991784,0.08919001800759152,-0.28235902830643506,0.7317082086466028,-0.13870402309181173,0.012758808142857896,0.8075609088998296,-0.8608625988421493,-1.2070819947955451,-1.0320693217541248,-0.44734834843321436,-1.200243219935863,-0.20821593097931027,0.09326156215211003,-1.58746220384536,-0.44158693826102496,-0.43986759323209185,-1.1349405895492917,-1.2775541130838999,-0.28466341682105023,-0.5611018547423962,-0.4686858372318041,0.1488226542482502,0.18745972654443066,-0.3332098688356196,0.11508591878036495,0.2848366393789334,0.28423644855310654,0.10660828969765054,-0.10910030458799555,0.40671955156241857,0.922116377690868,0.7203369277945918,1.2717827159207884,-0.3590286609275895,-1.6208218874611664,-1.4071745558506938,-1.0046275572825223,-1.5535736366044754,-1.832069341789951,-0.9106456932125518,0.0508399093035036,-0.5633695534755718,-1.394355984306744,-0.5556814545485613,-1.6254374120212454,-1.1556229791860888,-2.090236279027,-0.8801032388793549,0.5135077504117493,0.6571342260128598,-0.3293153192454087,0.3766227841783656,0.6496899965577969,-0.011018987674125144,0.7290583305405247,0.9670440856811615,0.2689996353322698,0.4485529278411505,0.15871177790401544,1.4149381073220477,0.2542345112709597,0.016538443917782027,-1.9922514689347448,0.06485232366175193,-0.023398429073359775,-2.167019436444997,-0.6644423300193293,-0.6004124768481354,-0.6590887206418776,-0.2415315315336912,-1.2360601949896526,-1.604527620583019,-1.9470413264626425,-0.8268075027423413,0.03344995471826142,-0.6434351384250168,-0.8313838907370437,-0.3363958365529816,-0.4087382312849031,-0.011544008287064847,0.4262196081533612,0.8243311057676794,0.8398788617376911,0.671722029425967,-0.7263853996227715,-0.5283351033205975,0.09230423727348903,0.8143115949184132,0.5827347280980177,0.8282552333783398,0.27197032024376394,-0.6538046292476424,-0.46639417294820684,-1.3742640782916014,-0.35554860755398526,-0.8067329971633025,-0.9218749434010498,-0.878277470117902,-1.118199827565662,-1.3239310881074842,-1.1718112690058433,-0.8560628009998195,0.04256400348693125,-0.07114467472964266,-0.0017056318335685657,0.8181176126621033,0.6835103265942716,-0.4211991806326295,0.7917275929606922,-0.25898956506853094,0.7365400188948875,-0.05684754776339831,0.9978124498996606,-0.25446131458968074,-0.6012599244653437,0.38226686574951707,0.9777485201268081,1.495022596117587,0.9392264234372497,-0.27397601233985497,0.3530806776551114,-0.4782167838201152,-0.20416166479157977,0.35202104191880706,0.8584575622469076,0.07039443841033677,-0.5439672485508058,0.5946400450889218,-0.12876728262499804,-1.145995221451758,0.5773825747639578,0.23202687005192218,1.0768139682749207,0.6528474425873418,0.3796156450679793,0.3195138613404122,-1.0304953780049906,-0.4306546768319835,0.0018042228046347274,0.7404631172709888,-0.7963434063516763,-0.2093998008906174,0.6240669228424056,0.5323090415059798,1.4325644813683756,1.6271381278563861,1.1938927454610544,1.5633338466674604,-0.17074003470324225,-0.47646426895595717,0.9206389463013672,0.8770653614710948,1.234105579295144,-0.5830342999030739,0.25831950839740814,-1.807293119214291,-0.4471480247170133,0.461445284397871,0.11092672443418292,-0.0745102264210947,-0.21095356281828323,1.6004972456742497,1.355571633225361,-0.8362230086218292,-0.84755688847857,-0.45199544432181393,-0.4587371438267955,-0.3922541884046888,-0.080313639187793,-1.0370991719647904,-0.04873354805122854,-0.3732601411940626,-0.5050105887241936,1.0051944915831603,-0.8597865738450411,0.6653070666914892,-0.020762456363766172,-0.31542485427252,1.2258184607330955,0.8766838010892715,1.0171040859735723,-0.3719017148468971,-0.9276469169099796,-0.7817466341921696,-0.08970321848206629,0.4320981549657081,-0.279279790186439,0.9372115353303244,0.7600005444520382,1.205858694778231,1.1760368695946866,0.3076306012444294,0.08783821384190273,-0.29004271763103545,0.08177179023518232,5.792205047240992E-4,-0.8723885255901956,-0.17948135676073004,-1.1392687388009926,-0.8164146560237581,-0.9615848661323426,-0.851908430437176,-0.5773793561955276,0.3505354154052525,-0.4902862444499662,-0.28838791507762934,-0.5753549101566783,0.813278612896854,-0.046678719597205834,0.09472261550544174,-0.4447929558473688,-1.08161189705665,0.22197466034769134,0.8527758854891911,-0.11470016938641671,-0.8333475727780417,-0.37188506756278683,1.9230547647407314,-0.04328836163958148,-0.051789691692709486,1.060752376621465,-0.795124363764387,0.1595203892528175,-0.006954872904650176,-0.899775126285034,0.13288729279369202,-1.0746739183353284,-0.7089627768035025,-0.5880553565964106,-1.2592446919745912,-1.22275049239201,-1.7490949019970872,-1.2891463567494792,-1.024027451324253,0.4663725449226498,0.14425684135501135,0.6553109809901144,-0.5192756841696949,0.11502307801869169,-0.41372583947232605,-0.5331512421007556,-0.29539008538725475,-0.5283849835216836,-0.22389838662120462,1.4503196192406205,0.7161339848806013,0.6278879612044823,-0.45284060220206196,-0.7605451114395831,-0.3685038474692171,0.5482187250725643,0.532949421047736,-0.832383098000713,-0.37108170792417544,-0.5879157934900758,-1.2380847674782693,-1.4954896600187138,0.15907688676558582,-0.7527615773222327,0.6528431691877052,-1.3665734105844594,0.3096162975197109,2.124062389784339,-0.10604176035501978,0.6239020532928995,-1.048381535938557,-0.08917907147693993,-0.6959400833004977,0.06158045343065633,-0.9705454345619364,0.08999214104827938,0.21095384074928827,0.7861962650561117,1.1452517560505242,-0.17096351968131554,0.7017781497030287,-0.7857796888733276,-0.6998070226534043,-0.9367971408002824,-0.6780413591855478,0.36856219334859586,-0.8914972739671324,0.004302561800781545,-0.6805222629401197,-0.3357987225656878,-0.9407618982112351,-0.39078690883779843,-0.2766791315823283,-0.3286895544856548,1.5440768592604615,1.101425717149865,1.004162088751552,1.2136982495817161,0.3393178631060397,-0.48794839338885754,-0.8784355039544398,-0.22381767425249446,1.0370660895256898,-0.9494837519046794,0.05408961901857302,-0.6078389392806374,1.4191325050626802,0.6766341945729278,0.5077536373814221,-0.7769587702354342,-0.47716480145652207,-0.18909063961957395,-0.15480781296443355,0.1194143557174737,-0.17714223494661907,-1.4517853610200153,-0.6151407917528134,-0.5557148018345268,-1.2472763257212818,-0.13410717930529767,-0.49899116756988077,0.43376684225224266,0.3707788469172385,0.02732577963391901,0.5121029127889724,0.5513762567180263,-0.21008476734253514,-0.4306107041717887,0.15929701921075842,-0.1742761732735283,1.0713701154134876,0.31385802449323835,0.0783294257387596,-0.5585852997172194,0.8400499523582345,1.104349680988716,0.6683058256049926,0.44641651983653535,0.6570408731491038,-0.2446945457618195,-0.6385060287072818,-0.5215822581913109,-0.32977466989725873,-0.6111651425253113,0.027802305132308285,-0.3963991578570751,-0.9888326735783479,0.8996903515513167,0.442376530507513,0.15944248737301475,0.6695415138658678,2.014474620460191,0.3905372496916723,-0.11640999271035389,0.05928603199607827,0.8453164648627772,-0.4823016636775579,-1.2776731961988894,-0.017285110072151076,0.2842010754229268,0.9028347166659769,1.0790695363367797,0.6706533303913591,0.37490834947241786,0.6463460346143188,0.6045824266565945,0.8833607753688247,-0.5385452057892993,0.794018607071416,-0.04704739913958685,0.2601666815626878,0.1998412446318222,1.452484647788877,-0.061165322937026395,0.9870185213946058,0.6479252936930148,1.7026163918895472,1.0870229629165573,1.1854098668260216,0.595820612673489,0.9012049353391631,0.9589555650601636,0.6576439889524027,0.6257585103376686,0.6108401420343634,0.07366406436539198,-0.6288059455067908,0.5186383793266566,-0.35891067110754704,0.36367827027079747,0.48022526119754977,-0.26132554974276323,0.23970374858435586,-0.6258397853448655,0.15774712639916255,-0.4331338133372431,-0.4707639525600335,-0.11998493711047326,0.8723824919757509,-0.2458146272635359,0.7574294559928261,2.103909425614208,2.049477852302342,2.393066723926244,1.7036982775574827,1.8174944559359643,1.5321893686517483,1.405546851894984,1.4512970963597456,0.10134064564777964,1.9721813793184098,0.7125515826377842,0.11292461951862552,0.663628261846027,-0.254828536666663,-0.3638728622767503,1.0568018037163058,-0.04549655799516526,0.29608987154187916,-0.9980423484972069,0.10389671231208271,0.31667563077902167,-0.8489478272883836,0.48022433738201953,0.824420788321981,-0.8905201528147295,-0.489277996763456,0.5128171445855542,0.49797591700136357,1.3129964429102463,0.28213755884962355,1.2526688557763128,1.5442852580668114,1.153292053984002,0.508883595009413,0.2845901859269643,0.6450040533093686,0.22018425733641248,1.8970787222232124,0.9734273991493175,1.7170271270328168,0.30909422260882463,-0.7654189074256177,-0.005701229398051019,0.17687018042150285,-0.5832555081795776,-0.898170659349879,0.7676401660982537,0.7769045737567997,0.828515379054867,-0.7642289760418849,-0.7493056910385155,0.02498163328619691,-0.9889472737829557,-1.0377621499969172,0.11424724941463667,-0.5679858646914945,-0.020524561923339745,0.07515005852610278,-0.17398851314222066,0.7152120831935572,0.36897649972860563,0.22917145239279865,0.3838771026362299,1.1946553301013565,-0.12473098876337921,-0.10528739181315709,1.7287073237080566,1.6967286319238968,0.668261767718883,1.3706998055371253,-0.30438096338616505,1.3033824512450403,-0.6627937609563684,0.3849499821708567,-0.14689359801620325,-0.7055169500860716,-0.08927753402845272,-0.1816968712401289,-0.6229497213488067,-0.28711172014440844,0.6065056397093983,-0.25950216437491674,-1.2868540788306406,0.08530498173892564,-0.48421618273292455,0.03538779020433845,-1.4379971909063154,-0.21546805328568594,0.2545688850487155,0.988935256266918,-0.019514579971892255,1.2995087332545234,1.2753231362099073,1.2271588943883376,1.5367253227997624,0.7849959594960528,0.7960905114665494,0.682726859530312,0.32040524051898517,-0.889799690564514,0.6630086656804008,0.08085818812718831,-1.3097983919825533,0.38608918545022625,0.9737493258645604,-0.5153434289309087,-0.2096445898335415,0.3012585899054985,0.26913155865114197,-0.828955151797899,-0.41416823395984115,-1.9527585197737831,-0.6636021352657762,-1.5344747194290664,-0.8114919962485998,0.5315858183001275,0.9815193617219757,0.25957143066004645,-0.23258620624271326,0.6507211190156151,0.5028666259013944,-0.7099483895874156,-0.0873717590149177,-1.3025176308786772,-0.47245929947402027,-0.4612065882074072,0.18531636359564413,0.5207089684460922,-0.7654296585279318,-0.5531335197981915,-0.6733849024359261,-0.30166680017399883,-0.4454053783294716,0.3287040928324285,0.7744450346766012,-0.2652971566065998,0.16318952995246236,-0.08805030298050318,-1.3881304604498128,-0.059390358287426885,-0.5862994115542278,-1.2457037273328795,-1.0098843054663031,-0.27472424246137844,0.1657956489318742,-0.382630537097147,0.4123147189078812,-0.27275667378283774,-0.8803897946585892,-0.9276877225925068,-2.077432707629435,-1.0640724506886727,0.5084433688070965,-0.9761531157927862,-0.27066861769391065,-0.5666996848891301,-0.7893190290215909,-0.032145271412883654,-0.11007043689298024,0.2187284480040092,0.571095264659855,0.5444561714737672,-0.9756411439498909,-0.17326635212912,0.31346017855283903,-0.3617803603880441,0.13026238666627957,-0.43288795809400193,-0.4544117493946083,0.4270386138488106,0.1863354073082311,-1.637788394536702,-1.6009643430236893,0.10710085341268402,-0.6169084616156714,-0.8496923072781605,-0.9178147802657395,-1.1965553678077288,-0.04745409664640014,-0.9839680252075551,0.40873360022476424,-0.08719725520718097,-0.17097384692483233,0.5461968850418305,0.750260215502376,0.2844310488683529,-0.490140415342958,-0.7648397743218529,0.5036623622042538,-0.3179728675670712,-0.5802025821240058,0.14891661938759237,-0.19261950935171623,-0.030388799132603284,0.9275089400769189,0.950581384807174,-0.8409925654882784,0.21593088149156336,-0.7317537188616978,-0.23384128246666533,0.1363109346416914,-0.18723102959580532,-0.7963045550847315,-0.17572836905253528,-0.25776163749941405,0.6216592327676479,-0.4802697691546262,0.8017069566706914,0.2766283881461473,-0.89863962821475,-0.24984400167216517,0.8919689102584458,0.16569486560026678,-0.8294050893413227,-0.886717995041761,0.18426027390742017,-0.9148153696448191,-0.2965466929160159,-0.594851083289361,0.42717970376625747,-0.41086771412851775,-0.6411927917774702,0.9238038695080799,-0.8711623043560424,0.3274319329767972,-0.0410055611476432,0.06049208125539174,-0.6797662867084988,-0.5681820741786088,0.8978974150076133,0.7399947223951074,0.13476171610699061,-0.6968947652837997,-0.3821898946458172,-0.4950934030331644,0.4476425535329456,0.03586987387676088,-0.24004058217701574,-0.8027575657117567,0.4018018589865413,0.3341612233032727,0.9092819079520962,0.9963290841762356,-0.9038295873524507,-0.8692950813031379,-0.8516393247623666,-0.8804209831184331,0.8558642908186838,0.030267071269632684,-0.003244150968956694,0.49576393615094616,0.09591233827422352,0.16885385392826602,0.7391653187109525,0.6963623070584906,-0.45916128549908114,-0.8288648454800046,-0.28116422616656456,-0.5804337395617042,-0.07212296728357032,0.012942114060374972,0.8817399456692562,-0.3661588535194436,-0.6420620759066796,0.46994531518665145,-0.3034293100563716,0.8572346863561762,0.43609620464840826,-0.1740338524647688,-0.8265301771831217,0.9043328411675653,0.6620363461277081,-0.8252749623091304,-0.6691913347886287,0.6101300448027489,0.6326796710839129,-0.7916945068759468,0.17529059479650336,-0.23748314325691208,-0.6877476315233695,0.10482316764902343,0.35384836175982065,-0.10267114563059884,-0.49142130299351094,-0.6186626736846551,0.4011948923416749,0.1990053431120595,1.5623379714564638,0.9310024352299864,0.3620771644499002,-0.018334230583958167,0.6655071144238585,0.5613244281657359,1.2083087604304712,-0.13404463972175498,-0.1049748678635124,0.29082211366613636,0.4314137362793829,0.5879131095516613,-0.39773471098500535,-0.2681319145578873,0.537462987293426,0.5877303448403073,0.34780065836104535,0.4768598313603986,0.4672990479375414,0.12580339427203782,-0.1539040773341619,-0.0593361095753051,-0.8996378103965603,-1.171060460990416,0.2568635817919733,-1.2807464821117465,-0.08671434422883414,-1.129474092294837,-0.12187060019863331,0.6243866452704913,0.7050634685549805,0.5523215333313868,1.246640193113315,0.39845228488589873,-0.40102889917319084,-0.01487303932668541,0.6681052595040897,1.007301116471625,1.0216079828164641,-0.8170608941939114,0.4483756938947084,0.04327101608527244,0.6835801406997082,-0.7495344416213905,-0.3720401108623571,0.5069837096815035,-0.6179227709956187,0.615845547151932,-0.39203363209984216,0.2821903240780131,-0.6734162958083265,-0.03670917792879862,-0.984971269191723,0.3971869326395568,-0.009766133743211444,-0.6769955155539467,-1.5171056737254538,0.5550904444791873,0.8164806073929142,-1.2138210148084378,-0.5970993664740941,0.1225219034251387,-0.31102121254744114,0.5370295798563324,0.816998875451408,1.2999469954926561,0.1098679639063803,0.8947207967389166,0.9560248639765598,0.15128262973782985,0.8085372509229839,0.7004195471296923,-0.3588044746873511,-0.48542250693126604,-0.7600574824123671,-0.7828160940329225,-0.3274687626285422,0.44035324124920905,-1.280282520057147,-0.07771910754936967,-0.7257579900782682,-0.46100998592736,1.234927210739575,-0.8613183432661027,-0.5820941570465447,-0.9403141010149622,0.9897522730249185,0.11710641209192292,0.13625654720834796,0.5336839333302156,1.289774874796321,0.68722939138318,-0.5663841164838226,0.48156770536520116,-0.2010710000565365,-0.7963573655119532,0.9006676791354609,0.8842905726777323,-0.8578689336207925,0.41984268345139353,0.7114338691684895,-0.010536460474089421,-0.6236050369289712,0.5173175438993198,0.466025067020822,-1.1210809922363192,-1.3332714137947608,0.33632960571353726,-0.2261113827838653,-0.16569967538311337,-0.29805238689059566,-0.4212196244473839,1.465592974938495,0.548859939939935,1.3293960410922154,0.9261134320441086,1.1949514901861682,1.8303672439978003,0.595018318356637,1.1094708004545655,1.2157678460832098,-0.012847365815916063,-0.7167778698068583,-0.22772741436421495,-0.4696352165236069,0.7213943702927581,0.31401883059851055,0.14935802643627402,0.37646362261588995,-0.5804726808867069,0.35742652501842836,0.22015996075473784,0.6475522101873926,-0.23477398069830316,-1.407239786659068,-0.7173734558964983,-0.47820435164482816,0.5367045493624312,-0.940221094002938,-0.0225137591693241,0.08375199279257099,1.708273929021414,1.506168193811431,1.1287236401352587,1.188685083779538,0.5979352744429814,0.5890933403566377,0.9583767720378575,0.9346383479226138,-0.37433990659085725,-0.07026438414834779,0.012883770962903404,0.08029739829573054,-0.45211587515752705,0.4267940588048844,0.3222738507823134,0.6462285915774503,-0.4183599531774997,-1.3614627491641957,-1.2016692965751252,-0.354680587413231,-0.5535202598945367,-1.345503479398298,-0.707700025536414,-0.22236242285569835,-0.3105408695876191,0.03655088848014882,0.2634971171589368,1.7714244297154766,0.6082545605503318,0.9700040667159918,1.3982845270533057,-0.15779583028353097,-0.30002947004217684,0.04887369883827793,-0.8899825291009548,0.16991963699821985,-0.1927068207637695,-0.15249516560077264,-1.3524133170476775,-0.3025505903211618,-0.6195138992217508,0.6355896043562534,0.9858699758742565,-0.3392851167812781,-0.8836463155287617,0.10799182253628539,-0.16495703564503458,-0.3105770328317636,0.0982461842087092,-0.9146394143774839,-1.104036286797971,-0.5522192759246116,0.49927804148595734,-0.15486465113826828,-0.25017483966990456,-0.7781400824759422,0.3506533912990882,2.184862039922779,0.0020963836844612614,-0.10469306845099043,0.07628891807579466,-1.7183301375302906,-1.9210245697236061,-1.0830919697691406,-0.30142052701218913,-1.152520035465093,0.38810141253361136,0.4315255272547629,-0.8523777550876948,-0.1311216224842561,-0.25706889841603164,0.10095811687702459,-0.17834749053634136,-0.07112709677160475,0.022917936513855933,-1.5857472267455304,-0.2980857656559329,0.8766127511200275,0.7106561467216738,-0.08621797587920084,0.3214067111159933,-0.36813329523646127,-0.31724651232673634,-0.29036373731182624,0.39022341997374255,-0.844291636618528,-1.8925670708171674,-2.8534984625751636,-0.20365272077328608,-1.030030623254513,-0.7643234687962855,-0.8327640218191117,0.48482360163811383,-0.3326507085322112,0.22890862399716239,-0.8464089954805268,-0.2368626507962244,-0.5724303018205723,0.04451554464314074,-0.723488684688325,-0.6097112324754831,0.43151078694877615,-0.35971925999920074,-1.419726147672361,0.7576209831976425,0.2717372213047821,1.3304071152925152,0.2879775949115461,-0.14871008461337287,-0.7954792599987307,-0.38120628715898686,1.7816934321664952,4.151577436713278,0.6411442896101307,-0.7654537372893059,0.4547141632830088,-0.920651312156242,-0.13151309245970727,0.5245026851391502,0.10137991286143888,1.0117708421815945,1.3830214758094814,1.965404243598294,0.5928103865518856,0.19492677260435193,-0.7506231321677257,0.5329188328740077,-0.12936897013854695,-1.0027714706482902,0.13108239486349124,-0.6489780924557421,0.5475667594902067,-0.2543881596452105,0.36129036855647134,1.0405144429616382,0.737111395142609,0.8106171860845128,-0.6546157360785595,-1.43540322414689,1.4427162843649273,4.19943824104576,0.5564484419330394,-0.9662491406242606,-0.8607491011865301,1.4451783092413386,0.4565152119244601,-0.20359035224060654,0.7338881556785518,1.288531262396735,1.6189671650476902,-0.1026626657837705,-0.777053046019418,0.7438528711981149,-0.3646114552935643,0.7621354453862071,0.1807356716103309,-0.20804132519727692,-0.5619711004395465,0.3424892406573163,0.19725583770516864,-0.25172860609277475,0.7418956355113793,-0.381647119980021,0.13332322667285262,0.5085702224445142,-0.349262001767406,-0.2804691885163826,2.1772589104174696,3.113119299445757,0.11784615926100464,-0.28802857493758194,-0.027724334509361674,-0.3560450416012617,0.09595498713654704,0.22159602007627194,-0.5683078481210669,-0.9516524087845784,1.3146671229100086,0.6453957353031186,-0.0021654738541519152,-0.3210629459746951,0.2937451381308431,3.274061646557438E-4,0.44060818215926484,0.46428137389594637,-0.7780612272275981,0.2904027471540356,-1.1474070326732801,-1.604913635437814,-0.33541401646498537,1.1151960041206814,-0.14625790305303898,0.4214904356079909,-0.8932485833550277,0.48361245842992595,1.7873909573689355,2.3070677342395545,-0.7591236083236236,-0.8099179237553369,-0.0584703638194826,-0.6400631122209481,0.09275552229840518,-0.45200857486359897,-0.5771228839627808,-1.3467123200697413,-0.9075562554739924,0.17675208229142544,-1.0817593423356597,-0.5756566180535223,0.13536561405668832,0.31337864051363873,0.9394006330506098,0.7748631049869447,-1.2579236504799773,-0.627781136012996,0.6048025570818751,-0.24421283429620946,0.0641215184231206,-0.9411158780420286,-0.5081324904620748,0.20294916306223232,-0.6078734221006808,0.4083519989335032,3.261021748286032,-0.5092210611123869,-0.001966901271068852,-0.8401707499031039,0.20175490985988365,-1.4225907195951997,-1.747726311920665,-0.344956633323644,-0.07646320892549892,-1.5300202436685961,-0.3526676241778569,-0.35973709456266584,0.0013300830739238854,-0.9446283126995418,0.3318466773677352,0.21719137551553552,-0.011748628863825855,1.115079737673068,-0.2590765809650596,-0.09309682606264615,0.37476789006725425,-1.2265209876561312,-1.0184874727579456,-0.008105122484267629,-0.16641275743279768,-0.2818980718085349,1.3244382070266678,1.2252832755100165,-0.4376975045604371,0.056049148882952725,-2.803182810075698,-0.6731588069080658,-2.0956357770814646,-1.04958043843466,-1.8896451132166254,-1.1483582067832463,0.16161102386371962,-0.27702717067264027,-1.5405088519156445,-0.9318046493896781,-0.45640496686058957,-0.08286730397861183,-0.0826753766755586,-0.3264240871783535,0.46516429674680954,-0.46174772972528655,0.6127769972359984,-1.3800118949771758,-0.2288841134083398,-0.6088978111600187,0.00890782608086148,-1.7129779428171665,-0.4036452795551566,1.1538142239791402,0.9007355897707514,0.873507843500296,0.992133479100492,-2.0787097789631965,-1.6011235938819661,-1.8503602243264372,-0.5049197177615822,-1.5992953644381622,0.0659640895250884,0.7334996681765413,0.6182005072861652,0.06340450624257762,0.19677561578991914,-1.246652224435991,-0.6017284012350996,0.8075920999742483,0.4009250375090621,0.25957575493039636,0.7749192367384213,-0.5823751105772644,0.604888432855436,-0.7554042621914873,-0.5365773289869205,-0.6371431587400611,0.9104754577715544,-0.04350767823254516,1.2032031862472488,2.6893017715704417,2.4673794168948144,0.417829699537755,-1.1612180143251196,-1.9584644465781869,-0.2555923322158075,-1.386215231986447,-0.607277072686218,-0.5561507342106612,1.05506987306257,-0.32517183914486925,-0.6209043955979742,-0.4167079789648972,-0.47971612724042484,-0.9888336204623006,0.3892022740361155,-0.07749465892308276,-0.5005796314305245,0.48236426001317645,0.10957334908387095,0.7134363984775258,0.3705676308819181,0.36127843843458807,-0.338743369800901,-0.733377953719625,-0.10994767922946339,-0.6469087192751487,0.16826719594537257,1.8668931881233348,-0.9917761634094509,-0.0915298137966562,0.683525847069104,-1.7273183299949892,-1.5149772767250285,-0.5246979893062912,-0.0916386286065535,0.5093486870810802,0.414935134068963,-0.12270961372229477,0.7732744876809154,1.3474158550423498,-0.3692030964685987,-0.023203349980222058,-1.0489271406880598,-0.08867896453803319,-0.14502985970838475,-0.6299152879686534,0.9781142567651746,-0.6186688436189832,-0.6374352998980096,-0.9850941521210442,-0.21202677590115152,1.1055838381724297,-0.7904662563934121,0.5851693061353312,0.6186816306657841,0.5706931089490347,-0.6354758209776331,0.8440335962464235,2.5232407086088386,1.6080877601448,0.5927850258038486,1.3581953390038624,-0.04658226176621974,0.2900877784536639,1.2969352922121438,0.42936263854537987,-1.2590410113723132,0.08706102365035827,-0.9064498390469268,0.03662799758393405,-0.886076232109282,-0.6435316033362973,-0.848870266257976,-0.7284246852287309,0.742590922161963,-0.7174114446568596,-0.8751721318134386,0.4087576834845816,-0.3743886091290959,0.8809855049015185,1.7192295258603298,0.9274380815734335,0.7668387636142125,-0.036763780908670905,-0.35657390041376014,0.840251734830591,1.8403303889004718,1.474603471607309,1.3484409783891917,0.39254959158410807,0.3063213992797577,1.0762863438524966,0.1207763838142565,0.12380970308695681,0.22526646970058217,-0.577162987683824,-0.3186515356100341,-1.2509793172377006,-0.5368246229844997,-0.7945729943848063,-0.9660479506812379,-0.013401459847267082,-0.8860032162707526,-0.5925892735608321,0.5639538766074754,-0.7512666445258215,0.6420636689196682,0.5254913705648611,-0.16769697443736356,-0.18860588284781918,-0.6593156456245989,-0.4071592785206886,-0.04647020990633481,-0.8060619204733741,-0.4191838617154219,0.4980918321095552,-0.5442314109269953,0.48521290155791025,0.9783076069651863,0.07703596786465153,-0.9001979356438453,0.37678825791503495,-0.7377525225533054,0.7472844202503947,-1.0200981262858142,1.0816142071528339,-0.5479122769846053,0.24443390269562149,-0.7415218175883435,0.0257766928698544,0.850712333035057,-0.7491253533637586,-0.25166271921861644,1.107244613533662,1.1538511466889103,0.9963888311014337,-0.07233392698187745,1.2382298713327744,-0.6387897130220034,-0.46457602569622886,-0.11371442772922997,-0.1608860065324325,1.7702852687379513,0.4434889588912677,-0.010681117523362548,1.2148124719271867,1.4756016896323816,0.5816857114817515,-0.8406938938125911,-0.8230149162130246,-0.6446836398517825,0.27297729496574297,0.2737011316329579,0.5303073369041067,-0.27876888247773446,0.6009052038136038,-0.6138318377571008,-0.2864355394549669,0.8353121106482497,0.34224938728515325,0.5152426794240179,-0.39080108503744987,-0.8121810418213697,0.6154147225509269,0.1714022743680907,0.16914712273105406,-0.01916611177132836,-0.5950598768562556,0.46501630510612657,0.7730659459246132,1.0704336340189895,0.7067122937311068,-0.15882051061618968,0.9412003389991004,2.292994846459029,-0.20047827843014704,-0.6851314540241882,0.028812061645920043,-0.11477472961315566,-0.7111251730617767,-0.45152193943300156,-0.44525629360597235,0.45494553075391225,0.2766994467472227,0.6642104819040038,0.5710682283615345,0.9164874322281502,-0.02228094022137894,0.8592310594825603,0.12037434217211697,-0.42419694993389084,0.8019625036197322,0.6539275705846563,0.7727298935098451,0.8930074317773318,1.2092958237393934,-0.1278486094126125,-0.5463355521352442,-0.2720392853619369,0.20100895162259175,0.8782596834995262,0.09264573869568829,0.1469772685368793,0.5202658994216635,0.22309060046421436,0.5398844984640566,-0.14105784821583148,-0.7177849702514669,0.37547855376068273,-0.057790694612521884,0.7447064749982436,-0.9361675441035215,0.946631535076728,0.10853840849236307,-0.47746954094134253,0.9112208487369615,0.2777900701023631,-0.14273931696168946,1.0140701634366396,0.2790257553337702,1.299784074105331,1.4110278370096654,0.7713977663065331,0.402946504457906,1.2915427068106455,0.7050766990448296,0.41742743936403903,1.4047434095578455,-0.9409994387457183,0.37808119832350817,0.22810936634958828,0.5301332611928277,0.18475355588980386,-0.21180451858016272,1.1456754675156315,0.9264425426222662,0.1776887910320826,0.013405669873083365,-0.001618678321910513,0.00933569687676461,-0.9514916029833036,0.7843046810974568,0.849918396064435,-0.6979797878204812,0.979840461070079,0.8298694496959075,-0.784139910438346,-0.3202201856300968,-0.9008412887376803,0.34583131635581044,0.06958592744433452,-0.41493480178468567,-0.36074675162061826,-0.46187367282336184,0.2945083680136296,0.760588863426334,0.09231750611575879,-0.2561888983230343,0.7536402776870397,-0.47305137385090057,0.922006696472737,-0.9396656560162775,-0.47065374191946674,0.06966091945532435,0.12241935679047776,0.985493430552836,-0.5673443703751766,-0.7437221735737538,-0.08783926768787564,0.4513847361431784,0.6999230371513854,0.06755654844599102,0.14388621026573345,-0.27618414125313717,0.4931828916479537,0.11988942345223075,0.2965287628743458,-0.32413122053675303,-0.5146095495110969,-0.22122388044518915,-0.9547577698726373,-0.024228890881461563,0.675124406292596,-0.3215215882881241,-0.2346476097549353,-0.5822332855447951,0.5281612911604416,-0.6159863305598818,0.12020268901637765,-0.0936649618083647,0.30408534796242703,-0.8012807488971452,0.5950622476078202,-0.3041196515998432,-0.8040527558378923,-0.28733650508516173,0.3873133185044739,-0.8850536157785907,0.7410180251794221,0.8453821223645759,-0.32553684728966203,-0.8065197040806513,-0.14670134663749543,-0.1428771897367036,0.9552174572454337,0.3571951767836125,-0.22141883475821766,0.0831581127405394,0.8739100656335006,0.6635217914232808,0.3158427495892102,-0.9068723682317598,0.030298596736636454,-0.8501364352245345,0.6932727173642027,-0.32731542150028453,-0.4230248381186308,0.46478473161044137,0.5914890719086676,-0.6217005911068482,-0.12699298229996356,-0.6224837979788502,-0.8248504843426456,0.27872528313372524,-0.7112284963200646,-0.7367415905551631,0.11743462365902246,-0.6030717228299711,0.8092369560170727,0.6462467096037207,0.8630864309073231,-0.6620687105059478,-0.02685551474490326,0.47929518922411085,-1.058057895187906,-0.8097563987345593,-0.7779511656633493,-0.49583346694836133,0.7512205385746417,-0.162793212348475,0.8225836507787408,0.042052820121283044,0.2047472226194126,0.4898922750010805,-0.4273813023026063,-0.5614821111422836,-0.9908129729226712,0.06318075679329893,-0.6103734087821864,-0.44406416184599523,-0.4961870837354872,0.7867083669987218,0.6939520324298594,0.41171695017116194,0.9042913642906747,0.16485686201975708,0.3324398171568762,-0.3895938886352371,-0.029324265149938,-0.9326460478791359,-0.7771905132505313,0.1642979627117827,-0.7815610644629569,0.30208848967405044,-1.82199532710455,-1.523260230133842,-0.5666974358287871,-0.8412674793796294,-0.701372996845761,-0.8007162416717261,-1.0209311624503348,-0.3174655495520522,-0.3273156683445777,0.8498524208278091,0.030111245432002914,-0.05131617337355652,1.2251227106805695,0.5300729091535945,-0.5370135608310341,-1.0264016204947441,0.17893779179231029,0.8139878141509118,-0.07269549961104028,0.4087688647218545,-0.9219445157849133,0.5938481653574122,0.45910427228566025,0.5853100990413922,0.15812694048599915,0.5418177391467057,-0.2237383405247871,-0.939839770688106,-1.0387046233312198,-0.8576173074000406,-0.41253307310183635,-0.5075456002461145,1.1250810890025407,0.9759321049601257,0.4669052557088825,0.5275578151009811,0.8576001190707662,0.6781669137770056,0.09672848050962361,1.060812091387615,0.5565626834503701,-0.5873877257187874,-0.6606785151220215,0.6927263540806851,-0.13509526818683407,0.5462588775387625,-0.07983835202981737,-0.8410211360356559,0.5413268300037489,0.8580392281455521,0.8643467407174432,-0.7386381966121693,-1.2632144503486054,-0.7573003369947373,-1.5015930536118858,-2.9621041780193624,-0.774203071371989,-0.9880156460544993,-0.3014615885319232,0.1884073669295733,-0.6380029544092775,-1.0481637174119567,-1.0230349686253608,-0.21350620076403543,-0.8499329422302117,-0.1813994572072091,0.637576082805411,-0.2977279599763602,0.6484360890156421,0.14502591054808917,-0.17253307443887417,0.2557370056030811,-0.2460767050128405,0.3600489727313372,-0.11479810408588353,-0.6550614355629915,0.5943015666195591,0.9516776655380921,0.20971410186664866,-0.8502323278501945,-0.25182491287929026,-2.2164084221364853,-2.807202727362632,-0.32370524331513717,0.46799234847380466,0.043267320828001186,-0.21824935217075364,-0.42218056033826373,-0.47435271521228134,-0.7841284655165313,0.32162563208099687,0.17966515060031812,0.4212348462238129,0.4095079182467402,0.3531550279887538,1.2633707467813595,0.35675226432214013,0.1730220471764436,-0.47358162165805834,-0.6586854965961005,-0.12149846329011142,-0.17309044703407722,-0.15169912619121914,0.8089729856275337,0.7391257089821615,0.6209142200054253,-0.5015689807852513,-0.9361301181726097,0.7979801793078717,-1.07205990049331,-1.0621230874321805,1.3315412080508306,1.5139657994982494,0.66509801367276,0.3483577690541415,-0.05005914269836692,-0.20823687638143612,0.9407991864972836,-0.04923870766182909,0.41986919895119507,-0.508601611997463,0.9850303191625408,-0.0014152414845817142,0.29144718622468574,1.1143050355086304,0.1314948181212736,0.2847546652649308,-0.7189003740534017,0.45824718519498026,0.368425233199186,-0.9640523221773092,-0.8607884044274158,0.0752703654659154,-0.28119446350088206,0.16340891839957813,-0.060189061989050885,1.1208056565797715,0.07705660507503113,-1.0930112315626244,1.160235404499734,1.989153647812005,1.7536597645881613,1.763818172637104,0.26841083189323756,0.18176936032224913,-1.0630348138200372,-0.402197393171683,0.7298665971916617,-0.3082016736014505,-0.23373008629537695,0.4607613408755896,0.24552086411678117,1.2166278796529886,-0.6174326380736617,-0.7049046223824578,0.6564132745815667,0.5404070944441053,-0.31074316033241833,0.3444537094098442,-0.7058201514198055,0.07883113574396086,-0.021621613775803676,0.821109638616407,0.3537434330985487,-0.9759900544386058,-0.7020035936498035,-1.5473271114975715,0.5788569902493016,1.4165505454406433,2.1484800029221636,0.7844598739417711,0.5571028264650923,-0.193730873763647,-1.033559540815903,0.011429354587505472,-0.04170341818128739,-0.05542974355325302,-1.4704914936042133,0.833377397343748,-0.4629915726145365,0.23010148988602097,0.07509303737936025,0.4763724035018016,-0.38315655977943763,-0.1721431976812091,0.37777590138791517,-0.37712762592775956,-0.018439452844019783,1.3807059500161554,1.1231038202988282,0.9467558109772598,-0.495226554230794,-2.1208311396100767,-1.1021633901265735,-0.23292789952743817,1.7035629823566236,0.3245432030076759,1.125052861960962,1.4790053476501983,1.1297733801183047,1.2712582811659232,0.6499198744941231,0.04342882392013954,0.21196963818909978,0.96028996872065,-0.31488490808487135,0.24211205361315621,0.6728330241249021,1.9155927098726984,0.12271074676418861,0.14318189084362137,0.7603147123225031,1.0131555083095725,-0.3246287113743966,-0.24318858963914,-0.016152983092326892,0.8721219023186791,1.6884490477270546,0.5256349988999068,0.520806243997597,-0.7680293828399242,-0.6022833035809096,-0.35915698268607027,1.4098668874363611,1.943983181138146,1.2103301791661218,0.4772364418735175,1.7160063315163558,1.7493523612462856,1.00865794349233,0.0768995638197169,0.9496860769707502,0.6221666839795517,0.7036498657093523,-0.4805205266756955,0.6245275090569629,-0.07761912029787553,2.023528305746082,1.5134972398612745,0.6797298115705322,-0.7951311219275787,0.015532863230698149,0.24204882719254728,-0.5420138358919455,0.7804311896135111,0.6920340578036318,1.9544494145824864,0.08168881197763797,-0.259806846084841,-1.0589696818440284,-0.8613418370232527,0.6506680159716082,-0.4421190454221032,2.073992172873274,0.7640500846936602,1.729098331215125,2.096756020568037,-0.5910443447399023,-0.5196252755464529,-1.0596980766651682,0.3138563908298893,-0.19790127397827603,1.3264348135268589,0.6483311790240069,1.3393645548926634,0.17535657640868968,0.20256289554361478,-0.3545800344013871,0.3253104877517636,0.13209728083519562,-0.4097986979936067,-0.29407839338031333,